{"learner":{"attributes":{},"feature_names":["time_date","last_purchase_date","first_purchase_date","total_purchases","total_spent","prod_group_name","average_price","price_std","popularity","perceived_color_match","prod_group_match","idx_group_match","sec_no_match","garment_group_no_match","idx_code_match","department_no_match","prod_type_no_match","graph_appearance_no_match","colour_group_code_match","perceived_colour_master_id_match","age_similarity","FN_similarity","active_similarity","member_similarity","news_similarity"],"feature_types":["c","c","c","int","float","c","float","float","int","i","i","i","i","i","i","i","i","i","i","i","float","float","float","float","float"],"gradient_booster":{"model":{"gbtree_model_param":{"num_parallel_tree":"1","num_trees":"100"},"iteration_indptr":[0,1,2,3,4,5,6,7,8,9,10,11,12,13,14,15,16,17,18,19,20,21,22,23,24,25,26,27,28,29,30,31,32,33,34,35,36,37,38,39,40,41,42,43,44,45,46,47,48,49,50,51,52,53,54,55,56,57,58,59,60,61,62,63,64,65,66,67,68,69,70,71,72,73,74,75,76,77,78,79,80,81,82,83,84,85,86,87,88,89,90,91,92,93,94,95,96,97,98,99,100],"tree_info":[0,0,0,0,0,0,0,0,0,0,0,0,0,0,0,0,0,0,0,0,0,0,0,0,0,0,0,0,0,0,0,0,0,0,0,0,0,0,0,0,0,0,0,0,0,0,0,0,0,0,0,0,0,0,0,0,0,0,0,0,0,0,0,0,0,0,0,0,0,0,0,0,0,0,0,0,0,0,0,0,0,0,0,0,0,0,0,0,0,0,0,0,0,0,0,0,0,0,0,0],"trees":[{"base_weights":[-3.285028E-5,-1.6420552E0,1.2749249E0,-1.8888674E0,-7.840685E-1,5.335039E-1,1.5783161E0,-1.9635689E0,-1.5847741E0,-9.059538E-1,1.4807814E0,2.8242618E-1,1.5080367E0,1.4231793E0,1.8572307E0,-1.9928085E0,-1.8490801E0,-1.6266483E0,6.341066E-1,-1.0196117E0,7.6404534E-2,1.5868791E0,6.8662703E-1,1.344645E-1,1.1826261E0,1.2411643E0,1.8368556E0,1.1406591E0,1.6630902E0,1.750809E0,1.9538497E0,-1.5773867E-1,-1.5999983E-1,-1.4910886E-1,-5.2238397E-2,-1.3225135E-1,-6.451909E-2,8.00365E-2,-3.467907E-2,-8.7163754E-2,8.342033E-3,-5.224887E-3,8.814959E-2,1.3976368E-1,1.133149E-1,3.0414611E-2,1.07507885E-1,-1.627541E-2,3.459927E-2,8.877701E-2,1.4949314E-1,9.005285E-2,1.3235445E-1,1.3889629E-1,1.5226398E-1,8.249622E-2,1.3222888E-1,1.226932E-1,1.4358245E-1,1.3116615E-1,1.4739105E-1,1.5407272E-1,1.5774335E-1],"categories":[2,3,8,9,15,17,1,3,9,10,14,15,16],"categories_nodes":[10,18],"categories_segments":[0,6],"categories_sizes":[6,7],"default_left":[1,1,0,1,0,0,0,1,0,0,1,0,0,0,0,0,0,0,1,0,0,0,0,0,0,0,0,0,0,0,0,0,0,0,0,0,0,0,0,0,0,0,0,0,0,0,0,0,0,0,0,0,0,0,0,0,0,0,0,0,0,0,0],"id":0,"left_children":[1,3,5,7,9,11,13,15,17,19,21,23,25,27,29,31,33,35,37,39,41,43,45,47,49,51,53,55,57,59,61,-1,-1,-1,-1,-1,-1,-1,-1,-1,-1,-1,-1,-1,-1,-1,-1,-1,-1,-1,-1,-1,-1,-1,-1,-1,-1,-1,-1,-1,-1,-1,-1],"loss_changes":[1.2427119E7,5.494195E5,7.516375E5,4.57675E4,1.6000631E5,2.3741625E5,1.02599E5,5.4115E3,3.6921562E4,6.1411344E4,2.4929648E3,1.027635E5,1.744075E4,1.0327375E5,8.71075E3,1.915E2,5.816625E3,8.4729375E3,2.8793184E3,3.8748125E4,8.289162E3,7.1034375E2,7.02432E2,6.672913E4,5.4458125E3,5.2357812E3,5.9225E2,3.9227E4,1.404125E4,4.105375E3,2.18875E2,0E0,0E0,0E0,0E0,0E0,0E0,0E0,0E0,0E0,0E0,0E0,0E0,0E0,0E0,0E0,0E0,0E0,0E0,0E0,0E0,0E0,0E0,0E0,0E0,0E0,0E0,0E0,0E0,0E0,0E0,0E0,0E0],"parents":[2147483647,0,0,1,1,2,2,3,3,4,4,5,5,6,6,7,7,8,8,9,9,10,10,11,11,12,12,13,13,14,14,15,15,16,16,17,17,18,18,19,19,20,20,21,21,22,22,23,23,24,24,25,25,26,26,27,27,28,28,29,29,30,30],"right_children":[2,4,6,8,10,12,14,16,18,20,22,24,26,28,30,32,34,36,38,40,42,44,46,48,50,52,54,56,58,60,62,-1,-1,-1,-1,-1,-1,-1,-1,-1,-1,-1,-1,-1,-1,-1,-1,-1,-1,-1,-1,-1,-1,-1,-1,-1,-1,-1,-1,-1,-1,-1,-1],"split_conditions":[1.2E2,2.9E1,4.61E2,9E0,1E0,1E0,1E0,-1.2281328E0,1E0,1E0,NaN,1E0,1E0,1.161E3,1E0,1.0135694E0,1E0,1E0,NaN,1E0,1E0,1.9E1,1E0,2.44E2,1E0,1E0,1E0,1E0,2.284E3,1.226E3,1E0,-1.5773867E-1,-1.5999983E-1,-1.4910886E-1,-5.2238397E-2,-1.3225135E-1,-6.451909E-2,8.00365E-2,-3.467907E-2,-8.7163754E-2,8.342033E-3,-5.224887E-3,8.814959E-2,1.3976368E-1,1.133149E-1,3.0414611E-2,1.07507885E-1,-1.627541E-2,3.459927E-2,8.877701E-2,1.4949314E-1,9.005285E-2,1.3235445E-1,1.3889629E-1,1.5226398E-1,8.249622E-2,1.3222888E-1,1.226932E-1,1.4358245E-1,1.3116615E-1,1.4739105E-1,1.5407272E-1,1.5774335E-1],"split_indices":[8,8,8,8,15,12,12,20,15,16,5,16,15,8,15,6,15,12,5,12,12,3,16,8,15,16,16,16,8,8,16,0,0,0,0,0,0,0,0,0,0,0,0,0,0,0,0,0,0,0,0,0,0,0,0,0,0,0,0,0,0,0,0],"split_type":[0,0,0,0,0,0,0,0,0,0,1,0,0,0,0,0,0,0,1,0,0,0,0,0,0,0,0,0,0,0,0,0,0,0,0,0,0,0,0,0,0,0,0,0,0,0,0,0,0,0,0,0,0,0,0,0,0,0,0,0,0,0,0],"sum_hessian":[5.9360215E6,2.5945245E6,3.341497E6,2.0149065E6,5.79618E5,9.7030025E5,2.3711968E6,1.6175455E6,3.97361E5,5.5001875E5,2.959925E4,7.7152625E5,1.98774E5,1.5236978E6,8.47499E5,1.2884648E6,3.2908075E5,3.9000125E5,7.35975E3,4.9298125E5,5.70375E4,2.611E4,3.48925E3,6.6261625E5,1.0891E5,1.09725E5,8.9049E4,6.997155E5,8.2398225E5,4.033E5,4.44199E5,3.2780725E5,9.606575E5,3.2506325E5,4.0175E3,3.7779625E5,1.2205E4,5.4795E3,1.88025E3,4.64102E5,2.887925E4,5.0113E4,6.9245E3,1.3456E4,1.2654E4,2.38075E3,1.1085E3,3.1053125E5,3.52085E5,9.844925E4,1.046075E4,8.575975E4,2.396525E4,3.542025E4,5.362875E4,5.76518E5,1.231975E5,4.155715E5,4.0841075E5,1.8211825E5,2.2118175E5,1.73745E5,2.70454E5],"tree_param":{"num_deleted":"0","num_feature":"25","num_nodes":"63","size_leaf_vector":"1"}},{"base_weights":[-6.446786E-5,-1.5364573E0,1.163497E0,-1.7578452E0,-7.8942674E-1,4.311764E-1,1.4433935E0,-1.8221773E0,-1.5028052E0,-8.971443E-1,1.3379647E0,1.9917978E-1,1.3697047E0,1.1767976E0,1.6021993E0,-1.8455554E0,-1.720028E0,-1.5380325E0,4.793488E-1,-9.9710643E-1,-1.0931251E-2,1.443672E0,5.721105E-1,6.1136737E-2,1.0500683E0,1.113117E0,1.6916602E0,9.872477E-1,1.6179253E0,1.5205432E0,1.8197824E0,-1.4608322E-1,-1.4817135E-1,-1.3862419E-1,-5.3684138E-2,-1.2601633E-1,-8.626885E-2,6.7927666E-2,-4.1062478E-2,-8.463295E-2,2.2447887E-3,-3.12256E-2,2.8074414E-2,1.012967E-1,1.2746452E-1,7.397902E-2,2.6502348E-3,-2.2173228E-2,2.4742026E-2,7.851581E-2,1.3803671E-1,8.003938E-2,1.2127849E-1,1.2743694E-1,1.4052784E-1,7.045834E-2,1.200391E-1,1.18310906E-1,1.4185762E-1,1.116151E-1,1.3134989E-1,1.4408785E-1,1.4683127E-1],"categories":[2,3,8,9,15,17,15,16,7,10,11,14,20,26,27,28,29,30,31,32,33,34,35,36,37,38,42,45,46,48,49,50,51],"categories_nodes":[10,18,22],"categories_segments":[0,6,8],"categories_sizes":[6,2,25],"default_left":[1,1,0,1,0,0,0,1,0,0,1,0,0,0,0,0,0,0,1,0,0,0,1,0,0,0,0,0,0,0,0,0,0,0,0,0,0,0,0,0,0,0,0,0,0,0,0,0,0,0,0,0,0,0,0,0,0,0,0,0,0,0,0],"id":1,"left_children":[1,3,5,7,9,11,13,15,17,19,21,23,25,27,29,31,33,35,37,39,41,43,45,47,49,51,53,55,57,59,61,-1,-1,-1,-1,-1,-1,-1,-1,-1,-1,-1,-1,-1,-1,-1,-1,-1,-1,-1,-1,-1,-1,-1,-1,-1,-1,-1,-1,-1,-1,-1,-1],"loss_changes":[1.0568774E7,4.21363E5,6.895675E5,3.22435E4,1.3347378E5,2.0254983E5,1.03043E5,3.7445E3,2.7644375E4,4.9111188E4,2.2716719E3,8.76108E4,1.5229375E4,7.597225E4,2.709725E4,1.61E2,3.9158125E3,6.64475E3,2.5379585E3,3.105475E4,7.714908E3,6.5296094E2,6.473522E2,5.3873797E4,4.823664E3,4.654008E3,5.212969E2,3.4742688E4,5.89375E3,1.68665E4,1.18125E2,0E0,0E0,0E0,0E0,0E0,0E0,0E0,0E0,0E0,0E0,0E0,0E0,0E0,0E0,0E0,0E0,0E0,0E0,0E0,0E0,0E0,0E0,0E0,0E0,0E0,0E0,0E0,0E0,0E0,0E0,0E0,0E0],"parents":[2147483647,0,0,1,1,2,2,3,3,4,4,5,5,6,6,7,7,8,8,9,9,10,10,11,11,12,12,13,13,14,14,15,15,16,16,17,17,18,18,19,19,20,20,21,21,22,22,23,23,24,24,25,25,26,26,27,27,28,28,29,29,30,30],"right_children":[2,4,6,8,10,12,14,16,18,20,22,24,26,28,30,32,34,36,38,40,42,44,46,48,50,52,54,56,58,60,62,-1,-1,-1,-1,-1,-1,-1,-1,-1,-1,-1,-1,-1,-1,-1,-1,-1,-1,-1,-1,-1,-1,-1,-1,-1,-1,-1,-1,-1,-1,-1,-1],"split_conditions":[1.12E2,2.6E1,4.26E2,8E0,1E0,1E0,9.88E2,-1.1752263E0,1E0,1E0,NaN,1E0,1E0,1E0,1E0,1.0135694E0,1E0,1E0,NaN,1E0,5.9E1,1E0,NaN,2.13E2,1E0,1E0,1E0,1E0,1E0,1.945E3,1E0,-1.4608322E-1,-1.4817135E-1,-1.3862419E-1,-5.3684138E-2,-1.2601633E-1,-8.626885E-2,6.7927666E-2,-4.1062478E-2,-8.463295E-2,2.2447887E-3,-3.12256E-2,2.8074414E-2,1.012967E-1,1.2746452E-1,7.397902E-2,2.6502348E-3,-2.2173228E-2,2.4742026E-2,7.851581E-2,1.3803671E-1,8.003938E-2,1.2127849E-1,1.2743694E-1,1.4052784E-1,7.045834E-2,1.200391E-1,1.18310906E-1,1.4185762E-1,1.116151E-1,1.3134989E-1,1.4408785E-1,1.4683127E-1],"split_indices":[8,8,8,8,15,12,8,20,15,16,5,16,15,12,15,6,15,16,5,12,8,16,0,8,15,16,16,16,15,8,16,0,0,0,0,0,0,0,0,0,0,0,0,0,0,0,0,0,0,0,0,0,0,0,0,0,0,0,0,0,0,0,0],"split_type":[0,0,0,0,0,0,0,0,0,0,1,0,0,0,0,0,0,0,1,0,0,0,1,0,0,0,0,0,0,0,0,0,0,0,0,0,0,0,0,0,0,0,0,0,0,0,0,0,0,0,0,0,0,0,0,0,0,0,0,0,0,0,0],"sum_hessian":[5.911979E6,2.5478025E6,3.3641762E6,1.9653542E6,5.824482E5,9.3025694E5,2.4339195E6,1.5694619E6,3.9589238E5,5.5437856E5,2.8069635E4,7.458821E5,1.8437481E5,9.08605E5,1.5253144E6,1.2771518E6,2.9231012E5,3.8897956E5,6.912816E3,4.9818472E5,5.6193824E4,2.4664432E4,3.4052031E3,6.417668E5,1.0411532E5,1.0260585E5,8.176897E4,6.355263E5,2.730787E5,1.1090938E6,4.162206E5,3.223472E5,9.5480456E5,2.8879253E5,3.5175996E3,3.5987556E5,2.9103986E4,5.036793E3,1.8760227E3,4.7029047E5,2.789426E4,2.7432506E4,2.876132E4,1.1287348E4,1.3377084E4,2.0580295E3,1.3471737E3,2.715485E5,3.702183E5,9.4514914E4,9.600402E3,8.019111E4,2.2414744E4,3.2459574E4,4.930939E4,5.263003E5,1.0922605E5,1.4408595E5,1.2899273E5,5.455069E5,5.635869E5,1.8949981E5,2.267208E5],"tree_param":{"num_deleted":"0","num_feature":"25","num_nodes":"63","size_leaf_vector":"1"}},{"base_weights":[-6.413591E-5,-1.4068478E0,1.1009597E0,-1.6213522E0,-5.9642637E-1,5.069428E-1,1.377031E0,-1.6951704E0,-1.305755E0,-7.531089E-1,7.285941E-1,2.9173476E-1,1.3161813E0,1.2739869E0,1.6940378E0,-1.7275436E0,-1.5815456E0,-1.348542E0,6.867484E-1,-8.508041E-1,9.039793E-2,3.288405E-1,1.3641074E0,1.6637035E-1,1.0460975E0,1.0912081E0,1.5937086E0,1.0539123E0,1.4496764E0,1.7112442E0,1.6703691E0,-1.3661419E-1,-1.3878302E-1,-1.27694E-1,-3.6874823E-2,-1.114871E-1,-6.621299E-2,7.771798E-2,-1.8172132E-2,-1.07799985E-1,-5.965586E-2,-6.699371E-2,1.719582E-2,1.2348034E-2,8.378425E-2,1.1382985E-1,6.783919E-2,-9.341787E-3,3.5106316E-2,6.315527E-2,9.624207E-2,7.9431914E-2,1.15530625E-1,1.20521E-1,1.3209873E-1,6.89265E-2,1.0150225E-1,1.09538116E-1,1.2643519E-1,1.35346E-1,1.3824414E-1,1.3167548E-1,1.3578248E-1],"categories":[1,3,9,10,14,15,16,2,3,8,9,15,17],"categories_nodes":[18,22],"categories_segments":[0,7],"categories_sizes":[7,6],"default_left":[1,1,0,1,0,0,0,1,0,0,0,0,0,0,0,0,0,0,1,0,0,0,1,0,0,0,0,0,0,0,0,0,0,0,0,0,0,0,0,0,0,0,0,0,0,0,0,0,0,0,0,0,0,0,0,0,0,0,0,0,0,0,0],"id":2,"left_children":[1,3,5,7,9,11,13,15,17,19,21,23,25,27,29,31,33,35,37,39,41,43,45,47,49,51,53,55,57,59,61,-1,-1,-1,-1,-1,-1,-1,-1,-1,-1,-1,-1,-1,-1,-1,-1,-1,-1,-1,-1,-1,-1,-1,-1,-1,-1,-1,-1,-1,-1,-1,-1],"loss_changes":[9.060938E6,4.46476E5,5.3814825E5,4.73095E4,1.11594266E5,1.8133228E5,7.3181E4,6.0515E3,3.2820688E4,3.961147E4,1.4439877E4,7.778261E4,1.3654969E4,6.5372E4,2.21125E2,1.815E2,5.982375E3,8.841875E3,2.1062903E3,2.2488594E4,5.766026E3,4.374289E3,6.6447266E2,5.4408688E4,4.7197734E3,4.1900312E3,4.8870312E2,3.1016875E4,9.888625E3,1.00875E2,1.4925E2,0E0,0E0,0E0,0E0,0E0,0E0,0E0,0E0,0E0,0E0,0E0,0E0,0E0,0E0,0E0,0E0,0E0,0E0,0E0,0E0,0E0,0E0,0E0,0E0,0E0,0E0,0E0,0E0,0E0,0E0,0E0,0E0],"parents":[2147483647,0,0,1,1,2,2,3,3,4,4,5,5,6,6,7,7,8,8,9,9,10,10,11,11,12,12,13,13,14,14,15,15,16,16,17,17,18,18,19,19,20,20,21,21,22,22,23,23,24,24,25,25,26,26,27,27,28,28,29,29,30,30],"right_children":[2,4,6,8,10,12,14,16,18,20,22,24,26,28,30,32,34,36,38,40,42,44,46,48,50,52,54,56,58,60,62,-1,-1,-1,-1,-1,-1,-1,-1,-1,-1,-1,-1,-1,-1,-1,-1,-1,-1,-1,-1,-1,-1,-1,-1,-1,-1,-1,-1,-1,-1,-1,-1],"split_conditions":[1.25E2,3.4E1,5.07E2,1.1E1,1E0,1E0,1E0,-1.1752263E0,1E0,1E0,1E0,1E0,1E0,1.182E3,2.4E1,1.0135694E0,1E0,1E0,NaN,-1.1298196E0,-1.2281328E0,1E0,NaN,2.69E2,2.44E2,1E0,1E0,1E0,2.691E3,1E0,1.723E3,-1.3661419E-1,-1.3878302E-1,-1.27694E-1,-3.6874823E-2,-1.114871E-1,-6.621299E-2,7.771798E-2,-1.8172132E-2,-1.07799985E-1,-5.965586E-2,-6.699371E-2,1.719582E-2,1.2348034E-2,8.378425E-2,1.1382985E-1,6.783919E-2,-9.341787E-3,3.5106316E-2,6.315527E-2,9.624207E-2,7.9431914E-2,1.15530625E-1,1.20521E-1,1.3209873E-1,6.89265E-2,1.0150225E-1,1.09538116E-1,1.2643519E-1,1.35346E-1,1.3824414E-1,1.3167548E-1,1.3578248E-1],"split_indices":[8,8,8,8,12,12,15,20,15,16,15,16,15,8,3,6,15,16,5,20,20,16,5,8,8,16,16,14,8,19,8,0,0,0,0,0,0,0,0,0,0,0,0,0,0,0,0,0,0,0,0,0,0,0,0,0,0,0,0,0,0,0,0],"split_type":[0,0,0,0,0,0,0,0,0,0,0,0,0,0,0,0,0,0,1,0,0,0,1,0,0,0,0,0,0,0,0,0,0,0,0,0,0,0,0,0,0,0,0,0,0,0,0,0,0,0,0,0,0,0,0,0,0,0,0,0,0,0,0],"sum_hessian":[5.8499075E6,2.568334E6,3.2815738E6,2.0308125E6,5.375214E5,1.04121544E6,2.2403582E6,1.6458446E6,3.8496788E5,4.806816E5,5.683976E4,8.224858E5,2.1872967E5,1.6907721E6,5.4958606E5,1.280888E6,3.6495662E5,3.768752E5,8.092683E3,4.3078766E5,4.9893934E4,3.4892824E4,2.1946938E4,7.0527956E5,1.1720625E5,1.20805516E5,9.792415E4,7.5057875E5,9.401933E5,3.1819522E5,2.3139084E5,3.423286E5,9.3855944E5,3.6025312E5,4.7035044E3,3.46875E5,3.0000207E4,6.170267E3,1.922416E3,7.523582E4,3.5555184E5,5.904361E3,4.3989574E4,2.8075465E4,6.817357E3,1.9701896E4,2.2450415E3,3.4585888E5,3.5942066E5,4.447437E4,7.273188E4,9.448891E4,2.6316605E4,3.8934727E4,5.898942E4,3.9606094E5,3.545178E5,5.8208675E5,3.5810656E5,1.4767456E5,1.7052067E5,1.2133146E5,1.1005938E5],"tree_param":{"num_deleted":"0","num_feature":"25","num_nodes":"63","size_leaf_vector":"1"}},{"base_weights":[-8.8175955E-5,-1.3656702E0,9.946233E-1,-1.5633937E0,-7.549018E-1,3.182101E-1,1.2476999E0,-1.619275E0,-1.3714602E0,-8.4212804E-1,1.1399086E0,1.7397042E-1,1.4960186E0,9.917932E-1,1.396673E0,-1.5424675E0,-1.6359245E0,-1.3970718E0,2.641891E-1,-9.238525E-1,-1.0447477E-1,1.2798926E0,5.5244386E-1,5.819762E-2,8.9450824E-1,1.5247079E0,1.2061905E0,8.1707203E-1,1.417557E0,1.3021289E0,1.5767919E0,-1.2413587E-1,-5.4293606E-2,-1.2902083E-1,-1.3124648E-1,-1.13289446E-1,-5.975208E-2,4.9574383E-2,-4.8865728E-2,-8.941846E-2,-5.291323E-2,-1.7964954E-2,6.8769544E-2,1.1575169E-1,9.026059E-2,1.754196E-2,9.222665E-2,-2.8107744E-3,6.577312E-2,6.3918E-2,1.04841866E-1,1.2751187E-1,1.18210085E-1,8.770304E-2,1.1372852E-1,5.7399776E-2,1.0469736E-1,1.03250384E-1,1.2495332E-1,9.3659855E-2,1.1369244E-1,1.21420436E-1,1.2868638E-1],"categories":[2,3,9,15,16,17,2,3,4,8,9,14,15,17,15,16],"categories_nodes":[10,12,18],"categories_segments":[0,6,14],"categories_sizes":[6,8,2],"default_left":[1,1,0,1,0,0,0,0,0,0,1,0,1,0,0,0,0,0,1,0,0,0,0,0,0,0,0,0,0,0,0,0,0,0,0,0,0,0,0,0,0,0,0,0,0,0,0,0,0,0,0,0,0,0,0,0,0,0,0,0,0,0,0],"id":3,"left_children":[1,3,5,7,9,11,13,15,17,19,21,23,25,27,29,31,33,35,37,39,41,43,45,47,49,51,53,55,57,59,61,-1,-1,-1,-1,-1,-1,-1,-1,-1,-1,-1,-1,-1,-1,-1,-1,-1,-1,-1,-1,-1,-1,-1,-1,-1,-1,-1,-1,-1,-1,-1,-1],"loss_changes":[7.82068E6,2.93018E5,5.702235E5,1.96575E4,9.807584E4,1.5408056E5,9.24125E4,1.81275E3,1.731575E4,3.4198156E4,2.1468672E3,6.740316E4,8.209531E2,6.634969E4,2.608925E4,2.01575E3,1.2325E2,5.0385E3,1.982836E3,2.5984188E4,6.550955E3,5.3241016E2,1.0053203E3,4.963792E4,4.4444375E3,2.9096875E2,2.095625E2,3.0959094E4,4.75325E3,1.571075E4,9.87375E2,0E0,0E0,0E0,0E0,0E0,0E0,0E0,0E0,0E0,0E0,0E0,0E0,0E0,0E0,0E0,0E0,0E0,0E0,0E0,0E0,0E0,0E0,0E0,0E0,0E0,0E0,0E0,0E0,0E0,0E0,0E0,0E0],"parents":[2147483647,0,0,1,1,2,2,3,3,4,4,5,5,6,6,7,7,8,8,9,9,10,10,11,11,12,12,13,13,14,14,15,15,16,16,17,17,18,18,19,19,20,20,21,21,22,22,23,23,24,24,25,25,26,26,27,27,28,28,29,29,30,30],"right_children":[2,4,6,8,10,12,14,16,18,20,22,24,26,28,30,32,34,36,38,40,42,44,46,48,50,52,54,56,58,60,62,-1,-1,-1,-1,-1,-1,-1,-1,-1,-1,-1,-1,-1,-1,-1,-1,-1,-1,-1,-1,-1,-1,-1,-1,-1,-1,-1,-1,-1,-1,-1,-1],"split_conditions":[1.03E2,2.2E1,4E2,6E0,1E0,1E0,9.4E2,1.7907128E0,1E0,1E0,NaN,1E0,NaN,1E0,1E0,1E0,2E0,1E0,NaN,5.6E1,1E0,1.7E1,1E0,1E0,1E0,1.3E1,1E0,1E0,1E0,1.84E3,1E0,-1.2413587E-1,-5.4293606E-2,-1.2902083E-1,-1.3124648E-1,-1.13289446E-1,-5.975208E-2,4.9574383E-2,-4.8865728E-2,-8.941846E-2,-5.291323E-2,-1.7964954E-2,6.8769544E-2,1.1575169E-1,9.026059E-2,1.754196E-2,9.222665E-2,-2.8107744E-3,6.577312E-2,6.3918E-2,1.04841866E-1,1.2751187E-1,1.18210085E-1,8.770304E-2,1.1372852E-1,5.7399776E-2,1.0469736E-1,1.03250384E-1,1.2495332E-1,9.3659855E-2,1.1369244E-1,1.21420436E-1,1.2868638E-1],"split_indices":[8,8,8,8,15,15,8,20,15,16,5,16,5,12,13,15,8,12,5,8,12,3,16,12,12,3,16,16,15,8,12,0,0,0,0,0,0,0,0,0,0,0,0,0,0,0,0,0,0,0,0,0,0,0,0,0,0,0,0,0,0,0,0],"split_type":[0,0,0,0,0,0,0,0,0,0,1,0,1,0,0,0,0,0,1,0,0,0,0,0,0,0,0,0,0,0,0,0,0,0,0,0,0,0,0,0,0,0,0,0,0,0,0,0,0,0,0,0,0,0,0,0,0,0,0,0,0,0,0],"sum_hessian":[5.75744E6,2.4263895E6,3.3310505E6,1.8329941E6,5.933954E5,9.069612E5,2.4240892E6,1.4196558E6,4.1333847E5,5.672815E5,2.611384E4,8.080099E5,9.895135E4,8.919323E5,1.532157E6,2.5293125E5,1.1667245E6,4.069662E5,6.3722695E3,5.107008E5,5.658069E4,2.1087762E4,5.026079E3,6.9615575E5,1.118541E5,9.00348E4,8.916554E3,6.3241175E5,2.5952055E5,1.00476594E6,5.2739106E5,2.5025612E5,2.675121E3,1.9533897E5,9.713855E5,3.9538256E5,1.1583652E4,4.5315347E3,1.8407351E3,2.9371344E5,2.1698738E5,5.031433E4,6.2663643E3,1.00312705E4,1.1056491E4,3.2332449E3,1.7928342E3,6.203676E5,7.578816E4,9.096739E4,2.0886717E4,3.6444207E4,5.3590586E4,5.908305E3,3.0082483E3,5.259013E5,1.06510445E5,1.3810367E5,1.21416875E5,4.7760266E5,5.2716325E5,1.8460066E5,3.4279038E5],"tree_param":{"num_deleted":"0","num_feature":"25","num_nodes":"63","size_leaf_vector":"1"}},{"base_weights":[-5.176063E-4,-1.23092E0,9.757884E-1,-1.4447627E0,-4.7297415E-1,4.9324152E-1,1.2337023E0,-1.5182889E0,-1.1241063E0,-6.1453253E-1,6.8727803E-1,2.9385105E-1,1.1596164E0,1.1392213E0,1.5239387E0,-1.5538465E0,-1.4013289E0,-1.1642315E0,6.276069E-1,-7.1211004E-1,9.938488E-2,2.9797885E-1,1.1632615E0,9.400076E-2,6.47914E-1,9.489864E-1,1.4517984E0,9.7546124E-1,1.3171637E0,1.5408384E0,1.5021603E0,-1.244873E-1,-1.191934E-1,-1.132593E-1,-2.8851317E-2,-9.559298E-2,-2.6698047E-2,6.549036E-2,-3.1826988E-2,-9.648098E-2,-4.9390256E-2,1.4228732E-3,9.8849274E-2,1.4048621E-2,7.011912E-2,1.00253865E-1,5.7683434E-2,-1.2797128E-2,2.5772717E-2,3.9566364E-2,7.702512E-2,6.8789914E-2,1.01764925E-1,1.17501855E-1,1.0186026E-1,6.405427E-2,9.292992E-2,1.0175508E-1,1.1978938E-1,1.2178266E-1,1.2452897E-1,1.18121535E-1,1.218322E-1],"categories":[15,2,3,8,9,15,16,17,18,2,3,4,8,9,14,15,17],"categories_nodes":[18,22,26],"categories_segments":[0,1,9],"categories_sizes":[1,8,8],"default_left":[1,1,0,1,0,0,0,1,0,0,0,0,0,0,0,1,0,0,1,0,0,0,1,0,0,0,1,0,0,0,0,0,0,0,0,0,0,0,0,0,0,0,0,0,0,0,0,0,0,0,0,0,0,0,0,0,0,0,0,0,0,0,0],"id":4,"left_children":[1,3,5,7,9,11,13,15,17,19,21,23,25,27,29,31,33,35,37,39,41,43,45,47,49,51,53,55,57,59,61,-1,-1,-1,-1,-1,-1,-1,-1,-1,-1,-1,-1,-1,-1,-1,-1,-1,-1,-1,-1,-1,-1,-1,-1,-1,-1,-1,-1,-1,-1,-1,-1],"loss_changes":[6.77958E6,4.0470875E5,3.9163875E5,4.5914E4,9.024529E4,1.4563553E5,5.623275E4,6.58625E3,2.5534031E4,3.411442E4,1.1071016E4,5.969654E4,1.5534031E4,4.5081125E4,1.83125E2,1.72E2,5.539375E3,9.048594E3,1.5939153E3,2.0156875E4,5.459585E3,2.326689E3,1.0679023E3,3.1247445E4,1.4696898E4,4.2221562E3,3.18625E2,2.6213812E4,6.04075E3,8.0625E1,1.1478125E2,0E0,0E0,0E0,0E0,0E0,0E0,0E0,0E0,0E0,0E0,0E0,0E0,0E0,0E0,0E0,0E0,0E0,0E0,0E0,0E0,0E0,0E0,0E0,0E0,0E0,0E0,0E0,0E0,0E0,0E0,0E0,0E0],"parents":[2147483647,0,0,1,1,2,2,3,3,4,4,5,5,6,6,7,7,8,8,9,9,10,10,11,11,12,12,13,13,14,14,15,15,16,16,17,17,18,18,19,19,20,20,21,21,22,22,23,23,24,24,25,25,26,26,27,27,28,28,29,29,30,30],"right_children":[2,4,6,8,10,12,14,16,18,20,22,24,26,28,30,32,34,36,38,40,42,44,46,48,50,52,54,56,58,60,62,-1,-1,-1,-1,-1,-1,-1,-1,-1,-1,-1,-1,-1,-1,-1,-1,-1,-1,-1,-1,-1,-1,-1,-1,-1,-1,-1,-1,-1,-1,-1,-1],"split_conditions":[1.35E2,3.6E1,5.65E2,1.2E1,1E0,1E0,1E0,-1.1752263E0,1E0,1E0,1E0,1E0,1E0,1.447E3,2.3E1,-1.5389004E0,1E0,1E0,NaN,-1.1515485E0,1E0,1E0,NaN,2.83E2,1E0,1E0,NaN,1E0,1E0,1E0,1.521E3,-1.244873E-1,-1.191934E-1,-1.132593E-1,-2.8851317E-2,-9.559298E-2,-2.6698047E-2,6.549036E-2,-3.1826988E-2,-9.648098E-2,-4.9390256E-2,1.4228732E-3,9.8849274E-2,1.4048621E-2,7.011912E-2,1.00253865E-1,5.7683434E-2,-1.2797128E-2,2.5772717E-2,3.9566364E-2,7.702512E-2,6.8789914E-2,1.01764925E-1,1.17501855E-1,1.0186026E-1,6.405427E-2,9.292992E-2,1.0175508E-1,1.1978938E-1,1.2178266E-1,1.2452897E-1,1.18121535E-1,1.218322E-1],"split_indices":[8,8,8,8,12,13,15,20,15,13,13,14,15,8,3,20,15,12,5,20,15,16,5,8,12,12,5,14,16,19,8,0,0,0,0,0,0,0,0,0,0,0,0,0,0,0,0,0,0,0,0,0,0,0,0,0,0,0,0,0,0,0,0],"split_type":[0,0,0,0,0,0,0,0,0,0,0,0,0,0,0,0,0,0,1,0,0,0,1,0,0,0,1,0,0,0,0,0,0,0,0,0,0,0,0,0,0,0,0,0,0,0,0,0,0,0,0,0,0,0,0,0,0,0,0,0,0,0,0],"sum_hessian":[5.643773E6,2.496954E6,3.146819E6,1.9474969E6,5.49457E5,1.0960868E6,2.0507322E6,1.5842306E6,3.6326625E5,4.897097E5,5.9747316E4,8.4365306E5,2.5243364E5,1.5471058E6,5.0362656E5,1.2148775E6,3.6935312E5,3.5513184E5,8.134418E3,4.3082497E5,5.888473E4,3.2867305E4,2.6880012E4,5.3926625E5,3.0438678E5,1.4669064E5,1.05743E5,8.0566256E5,7.414432E5,2.835366E5,2.2008997E5,1.1736425E6,4.1235055E4,3.6430747E5,5.0456543E3,3.4247947E5,1.2652383E4,6.8572354E3,1.2771826E3,6.933293E4,3.6149203E5,5.494019E4,3.94454E3,2.712988E4,5.737425E3,2.2336684E4,4.5433296E3,2.5520058E5,2.840657E5,2.0470989E5,9.967689E4,1.1497988E5,3.1710764E4,9.655587E4,9.187131E3,4.155346E5,3.9012794E5,5.927023E5,1.4874086E5,1.3032746E5,1.5320912E5,9.845469E4,1.2163529E5],"tree_param":{"num_deleted":"0","num_feature":"25","num_nodes":"63","size_leaf_vector":"1"}},{"base_weights":[-3.552612E-4,-1.240607E0,8.6326134E-1,-1.4242597E0,-7.0566577E-1,2.2908953E-1,1.0969594E0,-1.4851798E0,-1.2711233E0,-7.777615E-1,9.828239E-1,1.0275499E-1,1.3422055E0,9.563024E-1,1.3687418E0,-1.4893728E0,-1.4000595E0,-1.2904655E0,-7.416677E-2,-8.5086423E-1,-1.10406354E-1,1.1225408E0,4.217004E-1,-2.6840386E-3,7.722568E-1,1.3712193E0,1.0541186E0,7.243082E-1,1.177595E0,1.2729529E0,1.443361E0,-7.095448E-2,-1.19173884E-1,-1.1276223E-1,-2.9737813E-2,-1.09651364E-1,-9.3247086E-2,3.3638317E-2,-5.306118E-2,-8.180662E-2,-5.0371394E-2,-6.626202E-2,2.204492E-3,1.0351905E-1,7.652463E-2,6.802249E-2,-2.6245727E-3,-6.5309554E-3,5.401279E-2,1.2475172E-1,5.8140382E-2,1.14455946E-1,1.0457735E-1,7.497031E-2,1.0288223E-1,5.0534632E-2,9.5330216E-2,8.5252084E-2,1.0516157E-1,9.1019265E-2,1.0827592E-1,1.1241717E-1,1.1755118E-1],"categories":[2,3,9,15,16,17,2,3,4,8,9,14,15,17,18,20,24,25,26,27,28,29,30,31,32,33,34,35,36,37,38,39,40,41,42,43,44,45,46,47,48,49,11,18,20,24,25,26,27,28,29,30,31,32,33,34,35,36,37,38,40,41,42,43,44,45,46,47,48,49,1,2,3,4,5,6,7,8,9,10,14,16,17],"categories_nodes":[10,12,18,22,24],"categories_segments":[0,6,14,42,70],"categories_sizes":[6,8,28,28,13],"default_left":[1,1,0,1,0,0,0,1,0,0,1,0,1,0,0,0,0,0,1,0,0,0,1,0,1,0,0,0,0,0,0,0,0,0,0,0,0,0,0,0,0,0,0,0,0,0,0,0,0,0,0,0,0,0,0,0,0,0,0,0,0,0,0],"id":5,"left_children":[1,3,5,7,9,11,13,15,17,19,21,23,25,27,29,31,33,35,37,39,41,43,45,47,49,51,53,55,57,59,61,-1,-1,-1,-1,-1,-1,-1,-1,-1,-1,-1,-1,-1,-1,-1,-1,-1,-1,-1,-1,-1,-1,-1,-1,-1,-1,-1,-1,-1,-1,-1,-1],"loss_changes":[5.9082155E6,2.2244825E5,4.8192375E5,1.57235E4,7.044594E4,1.2313454E5,9.083325E4,4.28E2,1.1106375E4,2.7075312E4,1.857377E3,5.5511477E4,7.445469E2,8.0384375E4,5.79025E3,2.0675E2,5.508594E2,4.7250625E3,2.2235686E3,1.9000844E4,5.4266934E3,5.386738E2,9.2059296E2,3.6359004E4,3.831043E3,3.0679688E2,2.2046875E2,3.3087188E4,1.2281875E4,3.8605625E3,4.501875E2,0E0,0E0,0E0,0E0,0E0,0E0,0E0,0E0,0E0,0E0,0E0,0E0,0E0,0E0,0E0,0E0,0E0,0E0,0E0,0E0,0E0,0E0,0E0,0E0,0E0,0E0,0E0,0E0,0E0,0E0,0E0,0E0],"parents":[2147483647,0,0,1,1,2,2,3,3,4,4,5,5,6,6,7,7,8,8,9,9,10,10,11,11,12,12,13,13,14,14,15,15,16,16,17,17,18,18,19,19,20,20,21,21,22,22,23,23,24,24,25,25,26,26,27,27,28,28,29,29,30,30],"right_children":[2,4,6,8,10,12,14,16,18,20,22,24,26,28,30,32,34,36,38,40,42,44,46,48,50,52,54,56,58,60,62,-1,-1,-1,-1,-1,-1,-1,-1,-1,-1,-1,-1,-1,-1,-1,-1,-1,-1,-1,-1,-1,-1,-1,-1,-1,-1,-1,-1,-1,-1,-1,-1],"split_conditions":[9.6E1,2E1,3.75E2,-1.1752263E0,1E0,1E0,1E0,-1.5389004E0,1E0,1E0,NaN,1E0,NaN,1.086E3,1E0,0E0,1E0,9E0,NaN,5.1E1,-1.1515485E0,1.8E1,NaN,1E0,NaN,1.9E1,1E0,1E0,2.332E3,9.88E2,1E0,-7.095448E-2,-1.19173884E-1,-1.1276223E-1,-2.9737813E-2,-1.09651364E-1,-9.3247086E-2,3.3638317E-2,-5.306118E-2,-8.180662E-2,-5.0371394E-2,-6.626202E-2,2.204492E-3,1.0351905E-1,7.652463E-2,6.802249E-2,-2.6245727E-3,-6.5309554E-3,5.401279E-2,1.2475172E-1,5.8140382E-2,1.14455946E-1,1.0457735E-1,7.497031E-2,1.0288223E-1,5.0534632E-2,9.5330216E-2,8.5252084E-2,1.0516157E-1,9.1019265E-2,1.0827592E-1,1.1241717E-1,1.1755118E-1],"split_indices":[8,8,8,20,15,15,12,20,15,16,5,16,5,8,13,23,15,8,0,8,20,3,0,12,5,3,16,16,8,8,16,0,0,0,0,0,0,0,0,0,0,0,0,0,0,0,0,0,0,0,0,0,0,0,0,0,0,0,0,0,0,0,0],"split_type":[0,0,0,0,0,0,0,0,0,0,1,0,1,0,0,0,0,0,1,0,0,0,1,0,1,0,0,0,0,0,0,0,0,0,0,0,0,0,0,0,0,0,0,0,0,0,0,0,0,0,0,0,0,0,0,0,0,0,0,0,0,0,0],"sum_hessian":[5.5160135E6,2.2642675E6,3.2517462E6,1.6855822E6,5.786852E5,8.756233E5,2.376123E6,1.2058624E6,4.7971984E5,5.549886E5,2.3696564E4,7.863739E5,8.924943E4,1.565781E6,8.103419E5,1.1492331E6,5.662932E4,4.72091E5,7.628819E3,5.0019634E5,5.479226E4,1.8971705E4,4.724859E3,6.793801E5,1.0699376E5,8.107997E4,8.1694575E3,7.644095E5,8.013715E5,3.5484488E5,4.5549703E5,5.749276E2,1.1486581E6,5.61123E4,5.17022E2,2.8749566E5,1.8459536E5,4.147005E3,3.481814E3,2.816039E5,2.1859244E5,8.831864E3,4.59604E4,9.328888E3,9.642817E3,2.4313403E3,2.2935183E3,6.085045E5,7.087561E4,5.845153E3,1.011486E5,4.2013586E4,3.9066387E4,5.433497E3,2.7359602E3,6.3796394E5,1.26445555E5,4.4091003E5,3.604615E5,1.3242352E5,2.2242138E5,1.847675E5,2.7072953E5],"tree_param":{"num_deleted":"0","num_feature":"25","num_nodes":"63","size_leaf_vector":"1"}},{"base_weights":[-6.489048E-4,-1.1908894E0,8.0539036E-1,-1.369883E0,-6.8611854E-1,2.9478478E-1,1.0797669E0,-1.4299158E0,-1.2209252E0,-7.862217E-1,4.1872066E-1,1.7333451E-1,1.3001511E0,9.8119193E-1,1.4002169E0,-1.4341214E0,-1.3626082E0,-1.2391233E0,-1.0014114E-1,-8.5911876E-1,-2.2638011E-1,5.4394867E-2,9.2062515E-1,-1.5409134E-1,3.7768593E-1,1.3262937E0,1.0541571E0,8.1254977E-1,1.1776143E0,1.3806322E0,1.4219669E0,-6.76459E-2,-1.14751734E-1,-1.09564334E-1,-3.814008E-2,-8.766014E-2,-1.0409574E-1,5.2702025E-2,-3.5836518E-2,-9.580964E-2,-6.0576662E-2,-6.905274E-2,-7.036818E-3,3.152675E-2,-1.1171605E-2,8.3526626E-2,3.0010024E-2,-2.0170432E-2,3.974609E-2,1.603124E-2,5.3720653E-2,1.02384925E-1,1.1165936E-1,6.719532E-2,9.260706E-2,5.1330168E-2,8.046407E-2,-2.35792E-1,9.4387025E-2,-2.4587928E-1,1.1048079E-1,1.14730544E-1,1.11504264E-1],"categories":[2,3,4,8,9,14,15,17,11,12,13,16,17,18,19,20,22,23,24,25,26,27,28,29,30,31,32,33,34,35,36,37,38,39,40,41,42,43,44,45,46,47,48,49,10,11,12,13,14,15,16,17,18,19,20,24,25,26,27,28,29,30,31,32,33,34,35,36,37,38,39,40,41,42,43,44,45,46,47,3,8,9,15,16,17,18],"categories_nodes":[12,17,21,22],"categories_segments":[0,8,44,79],"categories_sizes":[8,36,35,7],"default_left":[1,1,0,1,0,0,0,1,0,0,0,0,1,0,0,0,0,1,0,0,0,1,1,0,0,0,0,0,0,0,0,0,0,0,0,0,0,0,0,0,0,0,0,0,0,0,0,0,0,0,0,0,0,0,0,0,0,0,0,0,0,0,0],"id":6,"left_children":[1,3,5,7,9,11,13,15,17,19,21,23,25,27,29,31,33,35,37,39,41,43,45,47,49,51,53,55,57,59,61,-1,-1,-1,-1,-1,-1,-1,-1,-1,-1,-1,-1,-1,-1,-1,-1,-1,-1,-1,-1,-1,-1,-1,-1,-1,-1,-1,-1,-1,-1,-1,-1],"loss_changes":[5.159048E6,1.96175E5,4.4918362E5,1.433175E4,6.286303E4,1.3683644E5,6.58775E4,3.2125E2,9.3910625E3,2.1269156E4,8.634601E3,6.6902484E4,7.75375E2,5.2830875E4,2.07E2,1.73E2,4.1285938E2,4.0306875E3,1.9424612E3,1.59065E4,5.2924365E3,1.8035365E3,1.3371328E3,2.4520379E4,3.2071195E4,3.5067188E2,2.5622852E2,2.8344812E4,6.7610625E3,4.3859375E2,7.765625E1,0E0,0E0,0E0,0E0,0E0,0E0,0E0,0E0,0E0,0E0,0E0,0E0,0E0,0E0,0E0,0E0,0E0,0E0,0E0,0E0,0E0,0E0,0E0,0E0,0E0,0E0,0E0,0E0,0E0,0E0,0E0,0E0],"parents":[2147483647,0,0,1,1,2,2,3,3,4,4,5,5,6,6,7,7,8,8,9,9,10,10,11,11,12,12,13,13,14,14,15,15,16,16,17,17,18,18,19,19,20,20,21,21,22,22,23,23,24,24,25,25,26,26,27,27,28,28,29,29,30,30],"right_children":[2,4,6,8,10,12,14,16,18,20,22,24,26,28,30,32,34,36,38,40,42,44,46,48,50,52,54,56,58,60,62,-1,-1,-1,-1,-1,-1,-1,-1,-1,-1,-1,-1,-1,-1,-1,-1,-1,-1,-1,-1,-1,-1,-1,-1,-1,-1,-1,-1,-1,-1,-1,-1],"split_conditions":[9.2E1,1.9E1,4.87E2,-1.2281328E0,1E0,1E0,1E0,-1.8042008E0,1E0,1E0,1E0,2.01E2,NaN,1.374E3,1E0,0E0,1E0,NaN,3.4722033E-1,-1.0513653E0,-1.1298196E0,NaN,NaN,1E0,1E0,1E0,2.25E2,1E0,2E0,2E0,2.8E1,-6.76459E-2,-1.14751734E-1,-1.09564334E-1,-3.814008E-2,-8.766014E-2,-1.0409574E-1,5.2702025E-2,-3.5836518E-2,-9.580964E-2,-6.0576662E-2,-6.905274E-2,-7.036818E-3,3.152675E-2,-1.1171605E-2,8.3526626E-2,3.0010024E-2,-2.0170432E-2,3.974609E-2,1.603124E-2,5.3720653E-2,1.02384925E-1,1.1165936E-1,6.719532E-2,9.260706E-2,5.1330168E-2,8.046407E-2,-2.35792E-1,9.4387025E-2,-2.4587928E-1,1.1048079E-1,1.14730544E-1,1.11504264E-1],"split_indices":[8,8,8,20,12,15,15,20,15,13,13,8,5,8,19,23,15,0,4,20,20,0,5,13,14,19,8,14,3,3,3,0,0,0,0,0,0,0,0,0,0,0,0,0,0,0,0,0,0,0,0,0,0,0,0,0,0,0,0,0,0,0,0],"split_type":[0,0,0,0,0,0,0,0,0,0,0,0,1,0,0,0,0,1,0,0,0,1,1,0,0,0,0,0,0,0,0,0,0,0,0,0,0,0,0,0,0,0,0,0,0,0,0,0,0,0,0,0,0,0,0,0,0,0,0,0,0,0,0],"sum_hessian":[5.377477E6,2.1712675E6,3.2062092E6,1.6028789E6,5.6838856E5,1.120674E6,2.0855354E6,1.1424435E6,4.6043538E5,5.2116875E5,4.7219844E4,9.998868E5,1.2078716E5,1.5949199E6,4.9061547E5,1.0752388E6,6.720465E4,4.5307862E5,7.356727E3,4.6112506E5,6.004369E4,2.7360402E4,1.9859443E4,3.842367E5,6.156501E5,1.0917985E5,1.1607308E4,8.5814694E5,7.36773E5,2.581912E5,2.3242427E5,5.042258E2,1.0747346E6,6.6681266E4,5.2338477E2,1.3689947E5,3.161792E5,2.3117358E3,5.044991E3,1.0670087E5,3.544242E5,1.0720493E4,4.93232E4,9.946632E3,1.7413771E4,1.6193592E4,3.6658516E3,3.339403E5,5.029637E4,3.8396394E5,2.3168617E5,6.541601E4,4.376384E4,3.782504E3,7.8248037E3,4.553835E5,4.0276344E5,3.9620157E2,7.3637675E5,2.12026E1,2.5817E5,1.622792E5,7.014506E4],"tree_param":{"num_deleted":"0","num_feature":"25","num_nodes":"63","size_leaf_vector":"1"}},{"base_weights":[-9.683426E-4,-1.1469826E0,7.5214624E-1,-1.3265717E0,-6.772247E-1,2.8791904E-1,1.0381451E0,-1.3832521E0,-1.1850338E0,-7.67893E-1,3.6163074E-1,1.1594605E-1,9.321669E-1,9.1899073E-1,1.2936313E0,-1.3602605E0,-1.1135609E-1,-1.2017584E0,-1.503836E-1,-8.3067286E-1,-1.740769E-1,2.029161E-2,8.4284383E-1,-1.7061333E-1,3.394306E-1,7.3682415E-1,1.248365E0,7.541229E-1,1.1159848E0,1.2179515E0,1.3518059E0,-1.0910034E-1,-7.284324E-2,-8.5910946E-2,-1.01194896E-1,1.6771764E-2,-7.107486E-2,-9.158961E-2,-5.8499E-2,1.1408929E-1,-1.8758189E-2,3.0405972E-2,-1.2718611E-2,7.742201E-2,2.4813075E-2,-1.9568607E-2,4.237361E-2,1.3902426E-2,4.9676605E-2,3.7980042E-2,7.0987895E-2,9.2454374E-2,1.04801506E-1,5.2627657E-2,8.832938E-2,8.30712E-2,9.903836E-2,8.939033E-2,1.03013E-1,1.058483E-1,1.0961203E-1],"categories":[11,13,17,18,19,20,22,23,24,25,26,27,28,29,30,31,32,33,34,35,36,37,38,39,40,41,42,43,44,45,46,47,48,49,15,16,1,2,3,4,5,6,7,8,9,10,14,16,17,10,11,12,13,14,15,16,17,18,19,20,23,24,25,26,27,28,29,30,31,32,33,34,35,36,37,38,39,40,41,42,43,44,45,46,47,48,3,8,9,15,16,17,18],"categories_nodes":[17,18,20,21,22],"categories_segments":[0,34,36,49,86],"categories_sizes":[34,2,13,37,7],"default_left":[1,1,0,1,0,0,0,0,0,0,0,0,0,0,0,0,0,1,1,0,1,1,1,0,0,0,0,0,0,0,0,0,0,0,0,0,0,0,0,0,0,0,0,0,0,0,0,0,0,0,0,0,0,0,0,0,0,0,0,0,0],"id":7,"left_children":[1,3,5,7,9,11,13,15,17,19,21,23,25,27,29,31,-1,33,35,37,39,41,43,45,47,49,51,53,55,57,59,-1,-1,-1,-1,-1,-1,-1,-1,-1,-1,-1,-1,-1,-1,-1,-1,-1,-1,-1,-1,-1,-1,-1,-1,-1,-1,-1,-1,-1,-1],"loss_changes":[4.516532E6,1.7507025E5,4.1926088E5,1.204225E4,5.4060344E4,1.3337522E5,5.94835E4,2.12375E2,7.428375E3,1.9678594E4,7.5675376E3,6.0851395E4,1.5665547E4,4.32775E4,2.7345625E3,4.611875E2,0E0,3.4115625E3,1.8150847E3,1.4914094E4,4.8786636E3,1.7385865E3,1.2720078E3,2.1573629E4,2.4895773E4,6.1844453E3,5.5196875E2,2.4443625E4,5.7458125E3,1.89225E3,1.831875E2,0E0,0E0,0E0,0E0,0E0,0E0,0E0,0E0,0E0,0E0,0E0,0E0,0E0,0E0,0E0,0E0,0E0,0E0,0E0,0E0,0E0,0E0,0E0,0E0,0E0,0E0,0E0,0E0,0E0,0E0],"parents":[2147483647,0,0,1,1,2,2,3,3,4,4,5,5,6,6,7,7,8,8,9,9,10,10,11,11,12,12,13,13,14,14,15,15,17,17,18,18,19,19,20,20,21,21,22,22,23,23,24,24,25,25,26,26,27,27,28,28,29,29,30,30],"right_children":[2,4,6,8,10,12,14,16,18,20,22,24,26,28,30,32,-1,34,36,38,40,42,44,46,48,50,52,54,56,58,60,-1,-1,-1,-1,-1,-1,-1,-1,-1,-1,-1,-1,-1,-1,-1,-1,-1,-1,-1,-1,-1,-1,-1,-1,-1,-1,-1,-1,-1,-1],"split_conditions":[8.8E1,1.7E1,5.25E2,-1.3108267E0,1E0,1E0,1E0,1.0135694E0,1E0,1E0,1E0,2.25E2,1E0,1.447E3,1E0,1E0,-1.1135609E-1,NaN,NaN,-1.0334637E0,NaN,NaN,NaN,1E0,1E0,2.13E2,1E0,1E0,2.996E3,1.121E3,1E0,-1.0910034E-1,-7.284324E-2,-8.5910946E-2,-1.01194896E-1,1.6771764E-2,-7.107486E-2,-9.158961E-2,-5.8499E-2,1.1408929E-1,-1.8758189E-2,3.0405972E-2,-1.2718611E-2,7.742201E-2,2.4813075E-2,-1.9568607E-2,4.237361E-2,1.3902426E-2,4.9676605E-2,3.7980042E-2,7.0987895E-2,9.2454374E-2,1.04801506E-1,5.2627657E-2,8.832938E-2,8.30712E-2,9.903836E-2,8.939033E-2,1.03013E-1,1.058483E-1,1.0961203E-1],"split_indices":[8,8,8,20,12,13,13,6,15,16,13,8,15,8,15,15,0,0,5,20,5,0,5,12,14,8,16,12,8,8,16,0,0,0,0,0,0,0,0,0,0,0,0,0,0,0,0,0,0,0,0,0,0,0,0,0,0,0,0,0,0],"split_type":[0,0,0,0,0,0,0,0,0,0,0,0,0,0,0,0,0,1,1,0,1,1,1,0,0,0,0,0,0,0,0,0,0,0,0,0,0,0,0,0,0,0,0,0,0,0,0,0,0,0,0,0,0,0,0,0,0,0,0,0,0],"sum_hessian":[5.2330375E6,2.0752022E6,3.157835E6,1.5012646E6,5.739376E5,1.2038208E6,1.9540144E6,1.071973E6,4.292916E5,5.278671E5,4.6070477E4,9.5018356E5,2.5363712E5,1.3325438E6,6.214706E5,2.9429666E5,7.776764E5,4.224625E5,6.8290796E3,4.7739522E5,5.0471926E4,2.695296E4,1.9117518E4,4.1633944E5,5.338441E5,1.5678245E5,9.685467E4,7.2542625E5,6.071175E5,2.701078E5,3.5136278E5,2.920259E5,2.2707422E3,1.3970953E5,2.82753E5,4.5904966E3,2.238583E3,1.1476101E5,3.6263422E5,1.8349836E3,4.8636945E4,8.963372E3,1.7989588E4,1.5484961E4,3.6325562E3,3.765523E5,3.9787113E4,3.360904E5,1.9775373E5,5.719908E4,9.958338E4,3.869841E4,5.8156258E4,5.689274E5,1.5649892E5,3.7109325E5,2.3602427E5,1.1058423E5,1.595236E5,1.3703234E5,2.1433042E5],"tree_param":{"num_deleted":"0","num_feature":"25","num_nodes":"61","size_leaf_vector":"1"}},{"base_weights":[-1.0074208E-3,-1.1077341E0,7.0323336E-1,-1.285782E0,-6.597287E-1,2.9250357E-1,1.0099528E0,-1.3397404E0,-1.1390339E0,-7.1532226E-1,8.081982E-1,1.8134151E-1,1.2108461E0,9.175142E-1,1.3082374E0,-1.3444512E0,-1.2672449E0,-1.1663096E0,-5.3103393E-1,-8.69144E-1,-4.8717543E-1,9.2213005E-1,1.1180519E-1,-7.726149E-2,4.060498E-1,1.2366478E0,9.7005993E-1,7.850645E-1,1.1013447E0,1.3275377E0,1.2836438E0,-6.0363717E-2,-1.0757746E-1,-1.01960264E-1,-3.438016E-2,-8.9741535E-2,-1.0852749E-1,3.735094E-3,-6.5335415E-2,-9.169618E-2,-6.1716225E-2,-4.504611E-2,1.1902269E-2,8.924801E-2,5.8747176E-2,3.389045E-2,-4.0533375E-2,-1.3508802E-2,4.4147782E-2,2.5161525E-2,7.458365E-2,1.032503E-1,9.3977556E-2,6.010901E-2,8.557694E-2,5.6354564E-2,9.244675E-2,8.449137E-2,1.0271765E-1,1.0456383E-1,1.07602805E-1,1.00685574E-1,1.04986824E-1],"categories":[2,3,9,10,15,17,2,3,4,8,9,14,15,17,11,12,13,14,17,18,19,20,22,23,24,25,26,27,28,29,30,31,32,33,34,35,36,37,38,39,40,41,42,43,44,45,46,47,48,49,50,20,27,28,29,30,31,32,33,34,35,36,37,38,42,45,46,48,49,50,51],"categories_nodes":[10,12,18,22],"categories_segments":[0,6,14,51],"categories_sizes":[6,8,37,20],"default_left":[1,1,0,1,0,0,0,1,0,0,1,0,1,0,0,0,0,0,1,0,0,0,1,0,0,0,0,0,0,0,0,0,0,0,0,0,0,0,0,0,0,0,0,0,0,0,0,0,0,0,0,0,0,0,0,0,0,0,0,0,0,0,0],"id":8,"left_children":[1,3,5,7,9,11,13,15,17,19,21,23,25,27,29,31,33,35,37,39,41,43,45,47,49,51,53,55,57,59,61,-1,-1,-1,-1,-1,-1,-1,-1,-1,-1,-1,-1,-1,-1,-1,-1,-1,-1,-1,-1,-1,-1,-1,-1,-1,-1,-1,-1,-1,-1,-1,-1],"loss_changes":[3.9632268E6,1.577305E5,3.9148438E5,1.1203E4,4.5894344E4,1.3562138E5,4.9051875E4,3.5175E2,6.3083125E3,1.9015312E4,1.6281074E3,6.886482E4,8.900156E2,3.30675E4,1.98E2,1.52E2,3.833047E2,3.0842812E3,2.6959434E3,8.758891E3,1.0533E4,6.3993164E2,5.5688745E2,3.1750666E4,3.054236E4,4.3159375E2,3.0187305E2,2.3583E4,4.693875E3,8.278125E1,1.3153125E2,0E0,0E0,0E0,0E0,0E0,0E0,0E0,0E0,0E0,0E0,0E0,0E0,0E0,0E0,0E0,0E0,0E0,0E0,0E0,0E0,0E0,0E0,0E0,0E0,0E0,0E0,0E0,0E0,0E0,0E0,0E0,0E0],"parents":[2147483647,0,0,1,1,2,2,3,3,4,4,5,5,6,6,7,7,8,8,9,9,10,10,11,11,12,12,13,13,14,14,15,15,16,16,17,17,18,18,19,19,20,20,21,21,22,22,23,23,24,24,25,25,26,26,27,27,28,28,29,29,30,30],"right_children":[2,4,6,8,10,12,14,16,18,20,22,24,26,28,30,32,34,36,38,40,42,44,46,48,50,52,54,56,58,60,62,-1,-1,-1,-1,-1,-1,-1,-1,-1,-1,-1,-1,-1,-1,-1,-1,-1,-1,-1,-1,-1,-1,-1,-1,-1,-1,-1,-1,-1,-1,-1,-1],"split_conditions":[8.4E1,1.6E1,5.94E2,-1.1752263E0,1E0,1E0,1E0,-1.8042008E0,1E0,4.6E1,NaN,2.5E2,NaN,1.64E3,2.3E1,0E0,1E0,1.8641906E0,NaN,-1.0164107E0,1E0,1.9E1,NaN,1E0,1E0,2E1,2.44E2,1E0,1E0,1E0,1.84E3,-6.0363717E-2,-1.0757746E-1,-1.01960264E-1,-3.438016E-2,-8.9741535E-2,-1.0852749E-1,3.735094E-3,-6.5335415E-2,-9.169618E-2,-6.1716225E-2,-4.504611E-2,1.1902269E-2,8.924801E-2,5.8747176E-2,3.389045E-2,-4.0533375E-2,-1.3508802E-2,4.4147782E-2,2.5161525E-2,7.458365E-2,1.032503E-1,9.3977556E-2,6.010901E-2,8.557694E-2,5.6354564E-2,9.244675E-2,8.449137E-2,1.0271765E-1,1.0456383E-1,1.07602805E-1,1.00685574E-1,1.04986824E-1],"split_indices":[8,8,8,20,15,15,15,20,12,8,5,8,5,8,3,23,15,20,0,20,16,3,0,16,16,3,8,16,16,19,8,0,0,0,0,0,0,0,0,0,0,0,0,0,0,0,0,0,0,0,0,0,0,0,0,0,0,0,0,0,0,0,0],"split_type":[0,0,0,0,0,0,0,0,0,0,1,0,1,0,0,0,0,0,1,0,0,0,1,0,0,0,0,0,0,0,0,0,0,0,0,0,0,0,0,0,0,0,0,0,0,0,0,0,0,0,0,0,0,0,0,0,0,0,0,0,0,0,0],"sum_hessian":[5.0849565E6,1.9774144E6,3.107542E6,1.4150419E6,5.623725E5,1.3285178E6,1.7790241E6,1.0346126E6,3.804293E5,5.4185194E5,2.0520594E4,1.1850704E6,1.434473E5,1.3581401E6,4.2088403E5,9.714676E5,6.3144973E4,3.640946E5,1.6334699E4,3.2364222E5,2.1820972E5,1.7635115E4,2.8854778E3,5.509809E5,6.3408956E5,1.29559984E5,1.3887306E4,7.893902E5,5.6875E5,2.3579083E5,1.8509322E5,4.4077E2,9.710269E5,6.2601887E4,5.4308856E2,2.9504044E5,6.9054164E4,5.4047827E3,1.0929916E4,8.436555E4,2.3927666E5,1.9494339E5,2.3266332E4,8.683769E3,8.951348E3,1.9185073E3,9.6697034E2,4.8095444E5,7.002645E4,5.4014325E5,9.394632E4,6.921115E4,6.0348836E4,4.349771E3,9.537534E3,6.4830844E5,1.4108173E5,4.5591228E5,1.128377E5,1.0864397E5,1.2714686E5,9.879708E4,8.629614E4],"tree_param":{"num_deleted":"0","num_feature":"25","num_nodes":"63","size_leaf_vector":"1"}},{"base_weights":[-1.0375545E-3,-1.0703348E0,6.589517E-1,-1.2505116E0,-6.398496E-1,2.755641E-1,9.694389E-1,-1.3053617E0,-1.1076467E0,-7.187632E-1,3.099389E-1,1.2743871E-1,9.1386485E-1,8.5630405E-1,1.2143611E0,-1.2796845E0,-1.05190665E-1,-1.1239974E0,-1.3860321E-1,-7.839519E-1,-2.1697164E-1,1.8326724E-2,7.406594E-1,-2.0094684E-1,2.921027E-1,7.178538E-1,1.1241089E0,7.254944E-1,1.051575E0,1.1410314E0,1.2705641E0,-1.0266631E-1,-6.606395E-2,-9.194308E-2,-6.306523E-2,4.173755E-2,-3.9958175E-2,-8.8064976E-2,-5.594216E-2,-6.450775E-2,-7.956911E-3,3.532722E-2,-1.0855977E-2,6.95902E-2,1.604545E-2,-7.067572E-2,-9.802388E-3,1.5994105E-2,6.346218E-2,5.1107768E-2,8.497665E-2,8.085021E-2,9.6999444E-2,4.479697E-2,7.2490826E-2,7.9161E-2,9.4938196E-2,8.519235E-2,9.7258635E-2,9.9146985E-2,1.0324739E-1],"categories":[11,12,13,14,16,17,18,19,20,22,23,24,25,26,27,28,29,30,31,32,33,34,35,36,37,38,39,40,41,42,43,44,45,46,47,48,49,50,7,9,10,11,12,13,14,15,16,17,18,19,20,22,23,24,25,26,27,28,29,30,31,32,33,34,35,36,37,38,39,40,41,42,43,44,45,46,47,48,49,3,8,9,10,15,16,17,18],"categories_nodes":[18,21,22],"categories_segments":[0,38,79],"categories_sizes":[38,41,8],"default_left":[1,1,0,1,0,0,0,0,0,0,0,0,0,0,0,0,0,0,1,0,0,1,1,0,0,0,0,0,0,0,0,0,0,0,0,0,0,0,0,0,0,0,0,0,0,0,0,0,0,0,0,0,0,0,0,0,0,0,0,0,0],"id":9,"left_children":[1,3,5,7,9,11,13,15,17,19,21,23,25,27,29,31,-1,33,35,37,39,41,43,45,47,49,51,53,55,57,59,-1,-1,-1,-1,-1,-1,-1,-1,-1,-1,-1,-1,-1,-1,-1,-1,-1,-1,-1,-1,-1,-1,-1,-1,-1,-1,-1,-1,-1,-1],"loss_changes":[3.4832715E6,1.46109E5,3.6329962E5,1.0404375E4,4.165842E4,1.2912225E5,4.67255E4,2.33125E2,5.837125E3,1.6786125E4,5.355389E3,5.993735E4,1.0599609E4,2.94635E4,2.1945E3,4.2834375E2,0E0,3.0748125E3,1.4572163E3,1.21845625E4,4.0863267E3,1.6576334E3,1.2011201E3,1.9812234E4,3.4104754E4,3.6210938E3,1.2435469E3,2.065475E4,3.8801562E3,1.3135E3,1.8703125E2,0E0,0E0,0E0,0E0,0E0,0E0,0E0,0E0,0E0,0E0,0E0,0E0,0E0,0E0,0E0,0E0,0E0,0E0,0E0,0E0,0E0,0E0,0E0,0E0,0E0,0E0,0E0,0E0,0E0,0E0],"parents":[2147483647,0,0,1,1,2,2,3,3,4,4,5,5,6,6,7,7,8,8,9,9,10,10,11,11,12,12,13,13,14,14,15,15,17,17,18,18,19,19,20,20,21,21,22,22,23,23,24,24,25,25,26,26,27,27,28,28,29,29,30,30],"right_children":[2,4,6,8,10,12,14,16,18,20,22,24,26,28,30,32,-1,34,36,38,40,42,44,46,48,50,52,54,56,58,60,-1,-1,-1,-1,-1,-1,-1,-1,-1,-1,-1,-1,-1,-1,-1,-1,-1,-1,-1,-1,-1,-1,-1,-1,-1,-1,-1,-1,-1,-1],"split_conditions":[8.1E1,1.5E1,6.19E2,-1.3108267E0,1E0,1E0,1E0,1.0135694E0,1E0,1E0,1E0,1.9E2,1E0,1.723E3,1E0,1E0,-1.05190665E-1,1E0,NaN,-1.1082524E0,-1.1752263E0,NaN,NaN,-1.2140255E0,1E0,1E0,1E0,1E0,3.981E3,1.447E3,1E0,-1.0266631E-1,-6.606395E-2,-9.194308E-2,-6.306523E-2,4.173755E-2,-3.9958175E-2,-8.8064976E-2,-5.594216E-2,-6.450775E-2,-7.956911E-3,3.532722E-2,-1.0855977E-2,6.95902E-2,1.604545E-2,-7.067572E-2,-9.802388E-3,1.5994105E-2,6.346218E-2,5.1107768E-2,8.497665E-2,8.085021E-2,9.6999444E-2,4.479697E-2,7.2490826E-2,7.9161E-2,9.4938196E-2,8.519235E-2,9.7258635E-2,9.9146985E-2,1.0324739E-1],"split_indices":[8,8,8,20,12,12,13,6,15,13,13,8,13,8,15,15,0,16,0,20,20,0,5,20,13,16,16,14,8,8,16,0,0,0,0,0,0,0,0,0,0,0,0,0,0,0,0,0,0,0,0,0,0,0,0,0,0,0,0,0,0],"split_type":[0,0,0,0,0,0,0,0,0,0,0,0,0,0,0,0,0,0,1,0,0,1,1,0,0,0,0,0,0,0,0,0,0,0,0,0,0,0,0,0,0,0,0,0,0,0,0,0,0,0,0,0,0,0,0,0,0,0,0,0,0],"sum_hessian":[4.9357355E6,1.8837434E6,3.051992E6,1.3279401E6,5.558032E5,1.3656716E6,1.6863202E6,9.5953744E5,3.6840275E5,5.1316675E5,4.2636418E4,1.1084449E6,2.5722681E5,1.1534986E6,5.328217E5,2.5960039E5,6.99937E5,3.622896E5,6.113129E3,4.5416478E5,5.9001984E4,2.5424336E4,1.7212084E4,3.7018778E5,7.3825706E5,1.331216E5,1.2410522E5,6.907668E5,4.627318E5,2.3119555E5,3.0162612E5,2.575308E5,2.0695967E3,3.369041E5,2.5385523E4,2.160121E3,3.9530076E3,9.577076E4,3.58394E5,9.807314E3,4.919467E4,6.7829556E3,1.8641379E4,1.3888593E4,3.3234902E3,3.814899E4,3.3203878E5,6.235708E5,1.146862E5,1.0828107E5,2.4840523E4,5.4343305E4,6.9761914E4,3.6045978E5,3.3030703E5,3.1711853E5,1.4561328E5,1.1451295E5,1.1668259E5,1.17887375E5,1.8373877E5],"tree_param":{"num_deleted":"0","num_feature":"25","num_nodes":"61","size_leaf_vector":"1"}},{"base_weights":[-1.3624767E-3,-1.0467503E0,6.1132723E-1,-1.2193463E0,-6.3902503E-1,9.669086E-2,8.380051E-1,-1.2734607E0,-1.0748956E0,-7.1001726E-1,2.5012264E-1,7.018594E-3,1.080705E0,6.9872296E-1,1.131671E0,-1.246271E0,-1.0267542E-1,-1.1011183E0,-5.031384E-1,-4.9542004E-1,-8.456139E-1,2.1703156E-2,7.951023E-1,-7.771969E-2,5.7612866E-1,1.1163651E0,7.511667E-1,4.9225077E-1,9.113594E-1,1.038664E0,1.2275383E0,-1.0000049E-1,-6.31622E-2,-8.467902E-2,-1.0312197E-1,-5.6669183E-2,1.7917925E-2,-4.5473505E-2,9.652934E-3,-7.615065E-2,-5.136177E-2,3.1295825E-2,-1.3297738E-2,8.784711E-2,3.1293325E-2,-5.283989E-2,3.794497E-4,1.13574825E-1,4.229842E-2,9.698747E-2,8.4297225E-2,6.924795E-2,2.9882459E-2,3.2588784E-2,7.611847E-2,6.532795E-2,8.762552E-2,7.272476E-2,8.987522E-2,9.532902E-2,1.00238234E-1],"categories":[17,18,19,20,21,22,23,24,25,26,27,28,29,30,31,32,33,34,35,36,37,38,39,40,41,42,43,44,45,46,47,48,2,3,8,9,14,15,17,10,11,12,13,14,17,18,19,20,22,23,24,25,26,27,28,29,30,31,32,33,34,35,36,37,38,39,40,41,42,43,44,45,46,47,48,49,1,2,3,4,5,6,7,8,9,10,14,16,17,14,20,26,27,28,29,30,31,32,33,34,35,36,37,50,51],"categories_nodes":[9,12,21,24,26],"categories_segments":[0,32,39,76,89],"categories_sizes":[32,7,37,13,16],"default_left":[1,1,0,1,0,0,0,0,0,1,0,0,1,0,0,0,0,0,0,0,0,1,0,0,1,0,1,0,0,0,0,0,0,0,0,0,0,0,0,0,0,0,0,0,0,0,0,0,0,0,0,0,0,0,0,0,0,0,0,0,0],"id":10,"left_children":[1,3,5,7,9,11,13,15,17,19,21,23,25,27,29,31,-1,33,35,37,39,41,43,45,47,49,51,53,55,57,59,-1,-1,-1,-1,-1,-1,-1,-1,-1,-1,-1,-1,-1,-1,-1,-1,-1,-1,-1,-1,-1,-1,-1,-1,-1,-1,-1,-1,-1,-1],"loss_changes":[3.0665725E6,1.24499125E5,3.521415E5,9.714875E3,3.321408E4,8.144692E4,8.5713875E4,2.43875E2,5.0784375E3,1.4178625E4,4.8431875E3,4.0795848E4,9.050703E2,6.2405188E4,6.0096875E3,4.1334375E2,0E0,2.5932812E3,2.2171704E3,8.485508E3,6.45975E3,1.9037925E3,1.4058896E3,3.538518E4,4.382746E3,4.1698438E2,3.251001E2,2.8113984E4,1.2206125E4,3.7588125E3,3.0190625E2,0E0,0E0,0E0,0E0,0E0,0E0,0E0,0E0,0E0,0E0,0E0,0E0,0E0,0E0,0E0,0E0,0E0,0E0,0E0,0E0,0E0,0E0,0E0,0E0,0E0,0E0,0E0,0E0,0E0,0E0],"parents":[2147483647,0,0,1,1,2,2,3,3,4,4,5,5,6,6,7,7,8,8,9,9,10,10,11,11,12,12,13,13,14,14,15,15,17,17,18,18,19,19,20,20,21,21,22,22,23,23,24,24,25,25,26,26,27,27,28,28,29,29,30,30],"right_children":[2,4,6,8,10,12,14,16,18,20,22,24,26,28,30,32,-1,34,36,38,40,42,44,46,48,50,52,54,56,58,60,-1,-1,-1,-1,-1,-1,-1,-1,-1,-1,-1,-1,-1,-1,-1,-1,-1,-1,-1,-1,-1,-1,-1,-1,-1,-1,-1,-1,-1,-1],"split_conditions":[7.4E1,1.4E1,3.6E2,-1.3108267E0,1E0,1E0,1E0,1.0135694E0,1E0,NaN,1E0,1E0,NaN,1.054E3,1E0,1E0,-1.0267542E-1,1.8641906E0,1E0,1E0,4.4E1,NaN,2.3E1,1E1,NaN,1.3E1,NaN,1E0,2.765E3,9.88E2,1.248E3,-1.0000049E-1,-6.31622E-2,-8.467902E-2,-1.0312197E-1,-5.6669183E-2,1.7917925E-2,-4.5473505E-2,9.652934E-3,-7.615065E-2,-5.136177E-2,3.1295825E-2,-1.3297738E-2,8.784711E-2,3.1293325E-2,-5.283989E-2,3.794497E-4,1.13574825E-1,4.229842E-2,9.698747E-2,8.4297225E-2,6.924795E-2,2.9882459E-2,3.2588784E-2,7.611847E-2,6.532795E-2,8.762552E-2,7.272476E-2,8.987522E-2,9.532902E-2,1.00238234E-1],"split_indices":[8,8,8,20,12,15,12,6,12,0,16,16,5,8,15,15,0,20,16,16,8,0,3,3,5,3,0,16,8,8,8,0,0,0,0,0,0,0,0,0,0,0,0,0,0,0,0,0,0,0,0,0,0,0,0,0,0,0,0,0,0],"split_type":[0,0,0,0,0,0,0,0,0,1,0,0,1,0,0,0,0,0,0,0,0,1,0,0,1,0,1,0,0,0,0,0,0,0,0,0,0,0,0,0,0,0,0,0,0,0,0,0,0,0,0,0,0,0,0,0,0,0,0,0,0],"sum_hessian":[4.7877895E6,1.7691749E6,3.0186148E6,1.2429951E6,5.2617975E5,9.230277E5,2.0955871E6,9.042387E5,3.3875644E5,4.8727447E5,3.8905254E4,8.459391E5,7.708861E4,1.4214256E6,6.7416156E5,2.4285658E5,6.613821E5,3.2390038E5,1.4856069E4,1.8867664E5,2.9859784E5,2.7415518E4,1.1489735E4,7.3630675E5,1.0963236E5,6.9559086E4,7.5295225E3,7.2116756E5,7.00258E5,3.4219178E5,3.319698E5,2.4088492E5,1.9716475E3,2.6401062E5,5.988974E4,1.1585973E4,3.270097E3,1.6868897E5,1.998767E4,1.9618895E5,1.02408875E5,9.242329E3,1.817319E4,6.564257E3,4.9254785E3,9.12711E4,6.450356E5,5.8308506E3,1.0380151E5,2.746494E4,4.2094145E4,5.777507E3,1.7520154E3,6.086563E5,1.12511266E5,4.6218562E5,2.3807236E5,1.3532345E5,2.0686831E5,1.3764183E5,1.9432798E5],"tree_param":{"num_deleted":"0","num_feature":"25","num_nodes":"61","size_leaf_vector":"1"}},{"base_weights":[-1.1733453E-3,-1.0161524E0,5.725967E-1,-1.1923052E0,-6.224072E-1,2.2335507E-1,8.8800967E-1,-1.2444378E0,-1.0436605E0,-6.6588604E-1,6.604477E-1,1.2864295E-1,1.0932246E0,7.939747E-1,1.2062677E0,-1.2142501E0,-1.0046273E-1,-1.0696877E0,-4.9503705E-1,-9.99094E-1,-5.74549E-1,8.8366354E-1,2.8467563E-1,-1.7422009E-1,2.8350797E-1,1.121629E0,8.382324E-1,6.7842954E-1,9.9280554E-1,1.2277422E0,1.1774186E0,-9.747152E-2,-5.8221105E-2,-8.188407E-2,-1.003994E-1,2.4565484E-3,-6.1725345E-2,-9.0498224E-2,-7.063184E-2,-5.0864194E-2,-1.753033E-3,9.005703E-2,6.0825866E-2,4.633305E-2,-9.81222E-3,-6.64346E-2,-8.445928E-3,1.6298665E-2,6.1420225E-2,9.481943E-2,8.4754616E-2,4.8346095E-2,7.6195106E-2,4.8110202E-2,8.3354995E-2,-2.5659174E-1,7.960372E-2,9.632322E-2,9.986239E-2,9.192076E-2,9.674856E-2],"categories":[3,5,9,10,15,16,2,3,8,9,14,15,17,11,12,13,14,16,17,18,19,20,24,25,26,27,28,29,30,31,32,33,34,35,36,37,38,39,40,41,42,43,44,45,46,47,48,49,50,20,24,26,27,28,29,30,31,32,33,34,35,36,37,38,40,41,42,43,44,45,46,47,49],"categories_nodes":[10,12,18,22],"categories_segments":[0,6,13,49],"categories_sizes":[6,7,36,24],"default_left":[1,1,0,1,0,0,0,0,0,0,1,0,1,0,0,0,0,0,1,0,0,0,1,0,0,0,0,0,0,0,0,0,0,0,0,0,0,0,0,0,0,0,0,0,0,0,0,0,0,0,0,0,0,0,0,0,0,0,0,0,0],"id":11,"left_children":[1,3,5,7,9,11,13,15,17,19,21,23,25,27,29,31,-1,33,35,37,39,41,43,45,47,49,51,53,55,57,59,-1,-1,-1,-1,-1,-1,-1,-1,-1,-1,-1,-1,-1,-1,-1,-1,-1,-1,-1,-1,-1,-1,-1,-1,-1,-1,-1,-1,-1,-1],"loss_changes":[2.703592E6,1.16287125E5,3.2670306E5,8.974875E3,2.8905844E4,1.15955414E5,4.663775E4,2.9225E2,4.294375E3,1.5254375E4,1.4247373E3,5.9531555E4,9.999844E2,2.7636125E4,2.1871875E2,4.7146875E2,0E0,2.45375E3,1.9808577E3,1.6546641E3,1.3317172E4,3.1731152E2,7.596646E2,1.9344225E4,3.2442492E4,4.9073438E2,3.695459E2,2.1309531E4,4.164625E3,9.765625E1,1.3625E2,0E0,0E0,0E0,0E0,0E0,0E0,0E0,0E0,0E0,0E0,0E0,0E0,0E0,0E0,0E0,0E0,0E0,0E0,0E0,0E0,0E0,0E0,0E0,0E0,0E0,0E0,0E0,0E0,0E0,0E0],"parents":[2147483647,0,0,1,1,2,2,3,3,4,4,5,5,6,6,7,7,8,8,9,9,10,10,11,11,12,12,13,13,14,14,15,15,17,17,18,18,19,19,20,20,21,21,22,22,23,23,24,24,25,25,26,26,27,27,28,28,29,29,30,30],"right_children":[2,4,6,8,10,12,14,16,18,20,22,24,26,28,30,32,-1,34,36,38,40,42,44,46,48,50,52,54,56,58,60,-1,-1,-1,-1,-1,-1,-1,-1,-1,-1,-1,-1,-1,-1,-1,-1,-1,-1,-1,-1,-1,-1,-1,-1,-1,-1,-1,-1,-1,-1],"split_conditions":[7.1E1,1.3E1,6.27E2,-1.2281328E0,1E0,1E0,1E0,1.0135694E0,1E0,-1.0888457E0,NaN,1.85E2,NaN,1.84E3,2.4E1,1E0,-1.0046273E-1,1.7907128E0,NaN,-1.461354E0,1E0,1.1E1,NaN,-1.2430377E0,1E0,1.8E1,2.44E2,1E0,2E0,1E0,1.84E3,-9.747152E-2,-5.8221105E-2,-8.188407E-2,-1.003994E-1,2.4565484E-3,-6.1725345E-2,-9.0498224E-2,-7.063184E-2,-5.0864194E-2,-1.753033E-3,9.005703E-2,6.0825866E-2,4.633305E-2,-9.81222E-3,-6.64346E-2,-8.445928E-3,1.6298665E-2,6.1420225E-2,9.481943E-2,8.4754616E-2,4.8346095E-2,7.6195106E-2,4.8110202E-2,8.3354995E-2,-2.5659174E-1,7.960372E-2,9.632322E-2,9.986239E-2,9.192076E-2,9.674856E-2],"split_indices":[8,8,8,20,15,15,15,6,12,20,5,8,5,8,3,15,0,20,0,20,16,3,0,20,16,3,8,16,3,19,8,0,0,0,0,0,0,0,0,0,0,0,0,0,0,0,0,0,0,0,0,0,0,0,0,0,0,0,0,0,0],"split_type":[0,0,0,0,0,0,0,0,0,0,1,0,1,0,0,0,0,0,1,0,0,0,1,0,0,0,0,0,0,0,0,0,0,0,0,0,0,0,0,0,0,0,0,0,0,0,0,0,0,0,0,0,0,0,0,0,0,0,0,0,0],"sum_hessian":[4.642437E6,1.6765964E6,2.9658405E6,1.1583666E6,5.1822972E5,1.4074451E6,1.5583954E6,8.5758725E5,3.0077947E5,5.0124197E5,1.6987758E4,1.2692494E6,1.3819578E5,1.2029624E6,3.55433E5,2.3430778E5,6.2327944E5,2.871556E5,1.3623855E4,1.0783556E5,3.934064E5,1.0656337E4,6.3314204E3,4.2943034E5,8.3981906E5,1.24341625E5,1.3854158E4,7.6083075E5,4.421316E5,2.0373619E5,1.5169681E5,2.3232727E5,1.9805178E3,2.2991764E5,5.7237965E4,4.6962124E3,8.927643E3,5.0453223E4,5.7382336E4,3.5415247E5,3.925393E4,3.5943896E3,7.0619473E3,3.6744614E3,2.656959E3,4.0667117E4,3.8876322E5,7.210367E5,1.18782375E5,6.146128E4,6.2880344E4,4.547244E3,9.306914E3,6.27767E5,1.3306375E5,2.3499649E2,4.418966E5,9.4610164E4,1.0912603E5,8.0304E4,7.139281E4],"tree_param":{"num_deleted":"0","num_feature":"25","num_nodes":"61","size_leaf_vector":"1"}},{"base_weights":[-1.545809E-3,-9.964175E-1,5.315323E-1,-1.1739255E0,-6.313491E-1,1.04398035E-1,7.7984846E-1,-1.2226622E0,-1.0362003E0,-6.924582E-1,1.8868022E-1,-2.7656473E-2,6.821908E-1,6.778867E-1,1.1708412E0,-1.1964355E0,-9.850686E-2,-1.0604641E0,-5.146997E-1,-7.5137293E-1,-2.3373781E-1,-1.7302943E-2,7.0292705E-1,-7.0709443E-1,3.6035918E-2,5.067538E-1,9.7058547E-1,4.9356765E-1,8.6712354E-1,1.1395005E0,1.1984621E0,-9.6002996E-2,-6.244291E-2,-7.383728E-2,-8.9023046E-2,1.3860307E-3,-6.057612E-2,-7.90322E-2,-5.264227E-2,-5.560469E-2,-8.861873E-3,2.7200958E-2,-1.705305E-2,8.585925E-2,2.738956E-2,-6.2325243E-2,1.5717788E-2,-8.243932E-3,2.5949167E-2,9.79009E-2,3.5021372E-2,6.727548E-2,8.636934E-2,2.6779654E-2,5.568982E-2,6.460704E-2,8.952193E-2,-3.050295E-1,9.1191426E-2,9.6957155E-2,9.322474E-2],"categories":[11,12,13,14,16,17,18,19,20,22,23,24,25,26,27,28,29,30,31,32,33,34,35,36,37,38,39,40,41,42,43,44,45,46,47,48,49,10,11,12,13,14,16,17,18,19,20,22,24,25,26,27,28,29,30,31,32,33,34,35,36,37,38,39,40,41,42,43,44,45,46,47,48,49,50,10,11,12,13,14,16,17,18,19,20,24,25,26,27,28,29,30,31,32,33,34,35,36,37,38,39,40,41,42,43,44,45,46,47,48,49,2,3,5,6,7,8,9,11,14,15,16,17,18],"categories_nodes":[17,18,21,25],"categories_segments":[0,37,75,111],"categories_sizes":[37,38,36,13],"default_left":[1,1,0,1,0,0,0,0,0,0,0,0,0,0,0,0,0,1,1,0,0,1,0,0,0,1,0,0,0,0,0,0,0,0,0,0,0,0,0,0,0,0,0,0,0,0,0,0,0,0,0,0,0,0,0,0,0,0,0,0,0],"id":12,"left_children":[1,3,5,7,9,11,13,15,17,19,21,23,25,27,29,31,-1,33,35,37,39,41,43,45,47,49,51,53,55,57,59,-1,-1,-1,-1,-1,-1,-1,-1,-1,-1,-1,-1,-1,-1,-1,-1,-1,-1,-1,-1,-1,-1,-1,-1,-1,-1,-1,-1,-1,-1],"loss_changes":[2.38717E6,1.01764625E5,3.108513E5,7.091E3,2.574564E4,8.220927E4,7.3884875E4,1.76125E2,3.4941562E3,1.2921625E4,3.77435E3,3.7952535E4,1.0140781E4,5.1273125E4,3.305E2,2.8965625E2,0E0,1.8975938E3,1.584419E3,9.354484E3,3.0869875E3,1.780613E3,1.3602725E3,4.888301E3,3.2155648E4,6.16409E3,1.0707031E3,2.3956188E4,1.087675E4,3.5323438E2,8.978125E1,0E0,0E0,0E0,0E0,0E0,0E0,0E0,0E0,0E0,0E0,0E0,0E0,0E0,0E0,0E0,0E0,0E0,0E0,0E0,0E0,0E0,0E0,0E0,0E0,0E0,0E0,0E0,0E0,0E0,0E0],"parents":[2147483647,0,0,1,1,2,2,3,3,4,4,5,5,6,6,7,7,8,8,9,9,10,10,11,11,12,12,13,13,14,14,15,15,17,17,18,18,19,19,20,20,21,21,22,22,23,23,24,24,25,25,26,26,27,27,28,28,29,29,30,30],"right_children":[2,4,6,8,10,12,14,16,18,20,22,24,26,28,30,32,-1,34,36,38,40,42,44,46,48,50,52,54,56,58,60,-1,-1,-1,-1,-1,-1,-1,-1,-1,-1,-1,-1,-1,-1,-1,-1,-1,-1,-1,-1,-1,-1,-1,-1,-1,-1,-1,-1,-1,-1],"split_conditions":[6.5E1,1.1E1,4.17E2,-1.4968E0,1E0,1E0,1E0,1.0135694E0,1E0,1E0,1E0,-1.2140255E0,1E0,1.121E3,1E0,1E0,-9.850686E-2,NaN,NaN,-9.5196825E-1,-1.069504E0,NaN,4.6577966E-1,1E0,1E0,NaN,1E0,1E0,1E0,2E0,2.8E1,-9.6002996E-2,-6.244291E-2,-7.383728E-2,-8.9023046E-2,1.3860307E-3,-6.057612E-2,-7.90322E-2,-5.264227E-2,-5.560469E-2,-8.861873E-3,2.7200958E-2,-1.705305E-2,8.585925E-2,2.738956E-2,-6.2325243E-2,1.5717788E-2,-8.243932E-3,2.5949167E-2,9.79009E-2,3.5021372E-2,6.727548E-2,8.636934E-2,2.6779654E-2,5.568982E-2,6.460704E-2,8.952193E-2,-3.050295E-1,9.1191426E-2,9.6957155E-2,9.322474E-2],"split_indices":[8,8,8,20,12,13,15,6,12,13,16,20,12,8,16,15,0,0,0,20,20,0,4,12,14,5,16,14,16,3,3,0,0,0,0,0,0,0,0,0,0,0,0,0,0,0,0,0,0,0,0,0,0,0,0,0,0,0,0,0,0],"split_type":[0,0,0,0,0,0,0,0,0,0,0,0,0,0,0,0,0,1,1,0,0,1,0,0,0,1,0,0,0,0,0,0,0,0,0,0,0,0,0,0,0,0,0,0,0,0,0,0,0,0,0,0,0,0,0,0,0,0,0,0,0],"sum_hessian":[4.501168E6,1.5703878E6,2.9307805E6,1.0566219E6,5.1376584E5,1.0774449E6,1.8533356E6,7.804405E5,2.761814E5,4.781351E5,3.563077E4,8.770061E5,2.0043877E5,1.4699975E6,3.8333816E5,1.939918E5,5.864487E5,2.639018E5,1.2279594E4,4.237155E5,5.441959E4,2.544119E4,1.018958E4,7.516577E4,8.018403E5,1.24627695E5,7.581107E4,7.4467656E5,7.253209E5,1.7959705E5,2.0374111E5,1.9232423E5,1.6675697E3,7.274901E4,1.9115281E5,3.844991E3,8.434603E3,1.1989612E5,3.0381938E5,1.145177E4,4.296782E4,9.007586E3,1.6433604E4,5.0258076E3,5.163773E3,6.9620484E4,5.54529E3,5.4091325E5,2.609271E5,1.0937094E4,1.136906E5,3.4636188E4,4.117488E4,4.173994E5,3.2727716E5,5.866688E5,1.3865206E5,1.3454765E1,1.795836E5,1.4475166E5,5.8989445E4],"tree_param":{"num_deleted":"0","num_feature":"25","num_nodes":"61","size_leaf_vector":"1"}},{"base_weights":[-1.5536643E-3,-9.550752E-1,5.050442E-1,-1.1424925E0,-5.723432E-1,1.961054E-1,8.221516E-1,-1.199087E0,-9.893874E-1,-6.3269365E-1,1.9840428E-1,7.3096894E-2,7.755804E-1,7.05453E-1,1.0891391E0,-1.1687553E0,-9.6770704E-2,-1.006199E0,-9.053508E-2,-4.3877062E-1,-7.739725E-1,-3.8888548E-2,5.7636535E-1,-6.687978E-1,1.2602533E-1,6.377151E-1,1.0354971E0,5.9139013E-1,9.1863424E-1,1.0003512E0,1.1464661E0,-9.38153E-2,-5.806744E-2,-7.68113E-2,-9.694617E-2,6.5352894E-2,-2.7385706E-2,-7.095944E-2,-2.8475152E-2,-6.965858E-2,-4.5238867E-2,9.673148E-2,-6.609247E-3,5.7430137E-2,2.3076283E-3,-7.81332E-2,-3.7379336E-2,3.7465207E-3,4.7705114E-2,4.2728018E-2,6.892616E-2,9.036756E-2,7.179428E-2,3.986486E-2,7.309924E-2,6.589082E-2,8.1980295E-2,7.440041E-2,8.813941E-2,8.913303E-2,9.434728E-2],"categories":[17,18,19,20,22,24,25,26,27,28,29,30,31,32,33,34,35,36,37,38,39,40,41,42,43,44,45,46,47,48,1,2,3,4,5,6,7,8,9,10,14,15,16,18,2,3,8,9,10,15,16,18],"categories_nodes":[9,21,22],"categories_segments":[0,30,44],"categories_sizes":[30,14,8],"default_left":[1,1,0,1,0,0,0,0,0,1,0,0,0,0,0,0,0,0,0,0,0,1,1,0,0,0,0,0,0,0,0,0,0,0,0,0,0,0,0,0,0,0,0,0,0,0,0,0,0,0,0,0,0,0,0,0,0,0,0,0,0],"id":13,"left_children":[1,3,5,7,9,11,13,15,17,19,21,23,25,27,29,31,-1,33,35,37,39,41,43,45,47,49,51,53,55,57,59,-1,-1,-1,-1,-1,-1,-1,-1,-1,-1,-1,-1,-1,-1,-1,-1,-1,-1,-1,-1,-1,-1,-1,-1,-1,-1,-1,-1,-1,-1],"loss_changes":[2.1083648E6,1.0862475E5,2.792367E5,8.80725E3,2.3154984E4,1.029115E5,4.3823688E4,2.35875E2,4.1458125E3,1.2647516E4,3.2420688E3,4.6765484E4,9.058391E3,2.3799062E4,2.1763438E3,3.33E2,0E0,2.5495E3,1.1514482E3,7.2236094E3,5.387203E3,1.212021E3,1.0801958E3,4.920758E3,4.1401953E4,3.8312422E3,1.1373281E3,1.9130516E4,3.438375E3,1.1962031E3,2.7475E2,0E0,0E0,0E0,0E0,0E0,0E0,0E0,0E0,0E0,0E0,0E0,0E0,0E0,0E0,0E0,0E0,0E0,0E0,0E0,0E0,0E0,0E0,0E0,0E0,0E0,0E0,0E0,0E0,0E0,0E0],"parents":[2147483647,0,0,1,1,2,2,3,3,4,4,5,5,6,6,7,7,8,8,9,9,10,10,11,11,12,12,13,13,14,14,15,15,17,17,18,18,19,19,20,20,21,21,22,22,23,23,24,24,25,25,26,26,27,27,28,28,29,29,30,30],"right_children":[2,4,6,8,10,12,14,16,18,20,22,24,26,28,30,32,-1,34,36,38,40,42,44,46,48,50,52,54,56,58,60,-1,-1,-1,-1,-1,-1,-1,-1,-1,-1,-1,-1,-1,-1,-1,-1,-1,-1,-1,-1,-1,-1,-1,-1,-1,-1,-1,-1,-1,-1],"split_conditions":[6.8E1,1.2E1,6.59E2,-1.4021363E0,1E0,1E0,1E0,1.0135694E0,1E0,NaN,1E0,-1.2583357E0,1E0,1.945E3,1E0,1E0,-9.6770704E-2,1.8641906E0,2.2866102E-1,-1.2140255E0,4.2E1,NaN,NaN,-1.4968E0,1E0,1E0,2.3E1,1E0,1E0,1.84E3,1E0,-9.38153E-2,-5.806744E-2,-7.68113E-2,-9.694617E-2,6.5352894E-2,-2.7385706E-2,-7.095944E-2,-2.8475152E-2,-6.965858E-2,-4.5238867E-2,9.673148E-2,-6.609247E-3,5.7430137E-2,2.3076283E-3,-7.81332E-2,-3.7379336E-2,3.7465207E-3,4.7705114E-2,4.2728018E-2,6.892616E-2,9.036756E-2,7.179428E-2,3.986486E-2,7.309924E-2,6.589082E-2,8.1980295E-2,7.440041E-2,8.813941E-2,8.913303E-2,9.434728E-2],"split_indices":[8,8,8,20,12,12,13,6,15,0,13,20,16,8,12,15,0,20,4,20,8,5,5,20,13,13,3,12,14,8,19,0,0,0,0,0,0,0,0,0,0,0,0,0,0,0,0,0,0,0,0,0,0,0,0,0,0,0,0,0,0],"split_type":[0,0,0,0,0,0,0,0,0,1,0,0,0,0,0,0,0,0,0,0,0,1,1,0,0,0,0,0,0,0,0,0,0,0,0,0,0,0,0,0,0,0,0,0,0,0,0,0,0,0,0,0,0,0,0,0,0,0,0,0,0],"sum_hessian":[4.3646725E6,1.514351E6,2.8503212E6,1.01655794E6,4.9779306E5,1.4437568E6,1.4065645E6,7.422007E5,2.7435725E5,4.616458E5,3.6147266E4,1.1909484E6,2.5280838E5,9.7875875E5,4.278058E5,1.915189E5,5.506818E5,2.693199E5,5.0373228E3,1.9457339E5,2.670724E5,2.2206441E4,1.3940826E4,7.930622E4,1.1116421E6,1.6519103E5,8.761736E4,6.3760906E5,3.411497E5,1.6785347E5,2.5995234E5,1.8983034E5,1.6885663E3,2.2003983E5,4.928009E4,1.093623E3,3.9436997E3,3.0347111E4,1.6422628E5,1.8241125E5,8.466117E4,7.50803E2,2.1455639E4,1.1077451E4,2.8633752E3,3.1376408E4,4.7929812E4,9.514284E5,1.602138E5,1.129263E5,5.2264727E4,5.2101547E4,3.551581E4,4.9475116E5,1.4285789E5,1.8001102E5,1.6113869E5,9.910442E4,6.874905E4,1.3113355E5,1.288188E5],"tree_param":{"num_deleted":"0","num_feature":"25","num_nodes":"61","size_leaf_vector":"1"}},{"base_weights":[-1.886485E-3,-9.397187E-1,4.6748963E-1,-1.1305313E0,-5.843687E-1,1.5846865E-2,6.781231E-1,-1.1775284E0,-9.74626E-1,-6.65935E-1,-5.7084292E-2,-5.2257463E-2,9.271128E-1,5.759906E-1,1.1167567E0,-1.1428063E0,-9.5223814E-2,-1.0085257E0,-5.597398E-1,-4.424397E-1,-7.714655E-1,-1.898507E-1,6.0110635E-1,-1.23048685E-1,4.4751313E-1,9.6961546E-1,5.692492E-1,3.787104E-1,7.5939023E-1,1.1459078E0,1.0757655E0,-9.178384E-2,-5.3341746E-2,-7.666189E-2,-9.56645E-2,1.8736897E-1,-4.8152182E-2,-4.3059323E-2,-4.829917E-3,-7.08108E-2,-4.9728148E-2,6.4788396E-3,-3.2590326E-2,6.582063E-2,2.0859603E-2,-4.0550128E-2,-1.3348007E-3,1.06307544E-1,3.1980686E-2,8.747252E-2,7.194772E-2,5.676462E-2,1.5645558E-2,2.4335923E-2,6.464954E-2,5.563464E-2,8.33785E-2,8.894063E-2,9.4185434E-2,8.2238644E-2,8.950312E-2],"categories":[11,16,17,18,19,20,21,22,23,24,25,26,27,28,29,30,31,32,33,34,35,36,37,38,39,40,41,42,43,44,45,46,47,48,49,2,3,8,9,14,15,17,1,2,3,4,5,6,7,8,9,10,13,14,15,16,18,18,20,21,23,24,25,26,27,28,29,30,31,32,33,34,35,36,37,38,39,40,41,42,43,44,45,46,47,48,49,24,25,26,27,28,29,30,31,32,33,34,35,36,37,38,39,40,41,42,43,44,45,46,47,48,1,2,3,4,5,6,7,8,9,10,14,16,17,14,15,20,26,27,28,29,30,31,32,33,34,35,36,37,38,50,51],"categories_nodes":[9,12,18,21,22,24,26],"categories_segments":[0,35,42,57,87,112,125],"categories_sizes":[35,7,15,30,25,13,18],"default_left":[1,1,0,1,0,0,0,0,0,1,0,0,1,0,0,0,0,0,1,0,0,1,1,0,1,0,1,0,0,0,0,0,0,0,0,0,0,0,0,0,0,0,0,0,0,0,0,0,0,0,0,0,0,0,0,0,0,0,0,0,0],"id":14,"left_children":[1,3,5,7,9,11,13,15,17,19,21,23,25,27,29,31,-1,33,35,37,39,41,43,45,47,49,51,53,55,57,59,-1,-1,-1,-1,-1,-1,-1,-1,-1,-1,-1,-1,-1,-1,-1,-1,-1,-1,-1,-1,-1,-1,-1,-1,-1,-1,-1,-1,-1,-1],"loss_changes":[1.8641219E6,9.5774875E4,2.6848344E5,6.732625E3,2.122425E4,5.5706246E4,8.622106E4,3.118125E2,2.993375E3,1.0079594E4,5.777409E3,2.9548355E4,9.4884375E2,5.648375E4,4.33125E2,4.0526562E2,0E0,1.8508906E3,1.9690156E3,5.017375E3,4.9447188E3,3.2412793E3,8.370071E2,2.9866246E4,4.360746E3,4.843164E2,3.4740747E2,2.4064258E4,1.46345E4,2.2653125E2,3.0945312E2,0E0,0E0,0E0,0E0,0E0,0E0,0E0,0E0,0E0,0E0,0E0,0E0,0E0,0E0,0E0,0E0,0E0,0E0,0E0,0E0,0E0,0E0,0E0,0E0,0E0,0E0,0E0,0E0,0E0,0E0],"parents":[2147483647,0,0,1,1,2,2,3,3,4,4,5,5,6,6,7,7,8,8,9,9,10,10,11,11,12,12,13,13,14,14,15,15,17,17,18,18,19,19,20,20,21,21,22,22,23,23,24,24,25,25,26,26,27,27,28,28,29,29,30,30],"right_children":[2,4,6,8,10,12,14,16,18,20,22,24,26,28,30,32,-1,34,36,38,40,42,44,46,48,50,52,54,56,58,60,-1,-1,-1,-1,-1,-1,-1,-1,-1,-1,-1,-1,-1,-1,-1,-1,-1,-1,-1,-1,-1,-1,-1,-1,-1,-1,-1,-1,-1,-1],"split_conditions":[6.2E1,1E1,3.31E2,-1.1632297E0,1E0,1E0,1E0,1.0135694E0,1E0,NaN,1E0,1E0,NaN,9.25E2,2.5E1,1E0,-9.5223814E-2,1.7907128E0,NaN,1E0,3.1E1,NaN,NaN,1.5E1,NaN,1.2E1,NaN,1E0,1E0,1E0,1.33E3,-9.178384E-2,-5.3341746E-2,-7.666189E-2,-9.56645E-2,1.8736897E-1,-4.8152182E-2,-4.3059323E-2,-4.829917E-3,-7.08108E-2,-4.9728148E-2,6.4788396E-3,-3.2590326E-2,6.582063E-2,2.0859603E-2,-4.0550128E-2,-1.3348007E-3,1.06307544E-1,3.1980686E-2,8.747252E-2,7.194772E-2,5.676462E-2,1.5645558E-2,2.4335923E-2,6.464954E-2,5.563464E-2,8.33785E-2,8.894063E-2,9.4185434E-2,8.2238644E-2,8.950312E-2],"split_indices":[8,8,8,20,13,15,15,6,16,0,15,16,5,8,3,15,0,20,5,14,8,0,0,3,5,3,0,16,16,19,8,0,0,0,0,0,0,0,0,0,0,0,0,0,0,0,0,0,0,0,0,0,0,0,0,0,0,0,0,0,0],"split_type":[0,0,0,0,0,0,0,0,0,1,0,0,1,0,0,0,0,0,1,0,0,1,1,0,1,0,1,0,0,0,0,0,0,0,0,0,0,0,0,0,0,0,0,0,0,0,0,0,0,0,0,0,0,0,0,0,0,0,0,0,0],"sum_hessian":[4.234752E6,1.4125065E6,2.8222455E6,9.1901825E5,4.9348828E5,8.976007E5,1.9246448E6,7.061466E5,2.1287158E5,4.2737662E5,6.6111664E4,8.3518344E5,6.241729E4,1.5611459E6,3.6349884E5,1.8989033E5,5.162563E5,1.9679069E5,1.6080891E4,1.3707688E5,2.9029975E5,5.5015055E4,1.1096607E4,7.315605E5,1.03622914E5,5.578958E4,6.6277114E3,7.521127E5,8.090332E5,2.1241328E5,1.5108556E5,1.881139E5,1.7764283E3,1.5516278E5,4.1627906E4,2.295198E2,1.585137E4,1.0959568E5,2.7481193E4,1.6508222E5,1.2521752E5,2.45052E4,3.0509855E4,6.7193716E3,4.377236E3,1.5873602E5,5.728245E5,5.324788E3,9.8298125E4,2.019607E4,3.5593508E4,4.8178247E3,1.8098868E3,6.409042E5,1.1120848E5,6.598326E5,1.4920056E5,1.0178573E5,1.10627555E5,7.1595625E4,7.948993E4],"tree_param":{"num_deleted":"0","num_feature":"25","num_nodes":"61","size_leaf_vector":"1"}},{"base_weights":[-1.670118E-3,-9.3447053E-1,4.2913446E-1,-1.122609E0,-6.0983115E-1,1.4379541E-2,6.495569E-1,-9.870817E-1,-1.1645638E0,-6.7623276E-1,-4.0266264E-2,-4.894211E-2,8.95507E-1,5.48942E-1,1.0927582E0,-1.0105996E0,-4.372611E-1,-1.1212E0,-1.1733062E0,-9.1769385E-1,-5.822033E-1,1.8039327E0,-8.906071E-2,-1.7475878E-1,2.1853742E-1,9.407103E-1,5.296889E-1,3.976497E-1,7.763125E-1,1.0530548E0,1.128595E0,-9.159074E-2,-7.572692E-2,6.5837614E-3,-5.5547662E-2,-9.006417E-2,-5.674592E-2,-3.7818015E-2,-9.3883894E-2,-8.364553E-2,-6.519217E-2,-4.0154245E-2,-7.287079E-2,1.719733E-1,1.0477103E-1,-1.5339502E-2,5.660086E-2,-4.0340446E-2,-4.8016743E-3,2.714197E-3,3.4595106E-2,6.921458E-2,8.484002E-2,5.3120196E-2,1.257725E-2,1.9867891E-2,4.778952E-2,5.51769E-2,7.70407E-2,-2.8970358E-1,8.427991E-2,9.166665E-2,8.694285E-2],"categories":[3,5,6,7,8,9,10,13,15,16,2,3,8,9,14,15,17,10,11,12,13,14,17,18,19,20,22,24,25,26,27,28,29,30,31,32,33,34,35,36,37,38,39,40,41,42,43,44,45,46,47,48,49,50,14,20,26,27,28,29,30,31,32,33,34,35,36,37,38,50,51],"categories_nodes":[10,12,16,26],"categories_segments":[0,10,17,54],"categories_sizes":[10,7,37,17],"default_left":[1,1,0,0,0,0,0,0,0,0,1,0,1,0,0,0,1,0,0,0,1,0,0,0,0,0,1,0,0,0,0,0,0,0,0,0,0,0,0,0,0,0,0,0,0,0,0,0,0,0,0,0,0,0,0,0,0,0,0,0,0,0,0],"id":15,"left_children":[1,3,5,7,9,11,13,15,17,19,21,23,25,27,29,31,33,35,37,39,41,43,45,47,49,51,53,55,57,59,61,-1,-1,-1,-1,-1,-1,-1,-1,-1,-1,-1,-1,-1,-1,-1,-1,-1,-1,-1,-1,-1,-1,-1,-1,-1,-1,-1,-1,-1,-1,-1,-1],"loss_changes":[1.650765E6,7.926525E4,2.5689975E5,4.67075E3,1.8008578E4,5.4408777E4,8.182256E4,2.5110938E3,2.365E2,9.68175E3,4.4740986E3,3.061735E4,1.0806602E3,5.1441125E4,4.81875E2,1.6000469E3,1.0644824E3,1.9878125E2,8.8125E1,1.5701953E3,8.097867E3,2.1620117E2,3.962027E3,2.3391975E4,1.1492793E4,5.255469E2,3.5973682E2,2.677475E4,9.659531E3,3.380625E2,1.2734375E2,0E0,0E0,0E0,0E0,0E0,0E0,0E0,0E0,0E0,0E0,0E0,0E0,0E0,0E0,0E0,0E0,0E0,0E0,0E0,0E0,0E0,0E0,0E0,0E0,0E0,0E0,0E0,0E0,0E0,0E0,0E0,0E0],"parents":[2147483647,0,0,1,1,2,2,3,3,4,4,5,5,6,6,7,7,8,8,9,9,10,10,11,11,12,12,13,13,14,14,15,15,16,16,17,17,18,18,19,19,20,20,21,21,22,22,23,23,24,24,25,25,26,26,27,27,28,28,29,29,30,30],"right_children":[2,4,6,8,10,12,14,16,18,20,22,24,26,28,30,32,34,36,38,40,42,44,46,48,50,52,54,56,58,60,62,-1,-1,-1,-1,-1,-1,-1,-1,-1,-1,-1,-1,-1,-1,-1,-1,-1,-1,-1,-1,-1,-1,-1,-1,-1,-1,-1,-1,-1,-1,-1,-1],"split_conditions":[5.4E1,8E0,3.45E2,1.7907128E0,1E0,1E0,1E0,1E0,2E0,-9.5196825E-1,NaN,1E0,NaN,1.226E3,1E0,-1.1632297E0,NaN,1E0,0E0,-1.4021363E0,1.4104912E0,1E0,1E0,1.7E1,1E0,1E0,NaN,1E0,2.996E3,2E0,2.8E1,-9.159074E-2,-7.572692E-2,6.5837614E-3,-5.5547662E-2,-9.006417E-2,-5.674592E-2,-3.7818015E-2,-9.3883894E-2,-8.364553E-2,-6.519217E-2,-4.0154245E-2,-7.287079E-2,1.719733E-1,1.0477103E-1,-1.5339502E-2,5.660086E-2,-4.0340446E-2,-4.8016743E-3,2.714197E-3,3.4595106E-2,6.921458E-2,8.484002E-2,5.3120196E-2,1.257725E-2,1.9867891E-2,4.778952E-2,5.51769E-2,7.70407E-2,-2.8970358E-1,8.427991E-2,9.166665E-2,8.694285E-2],"split_indices":[8,8,8,20,16,15,15,12,8,20,5,14,5,8,16,20,0,15,23,20,20,15,15,3,10,19,0,14,8,3,3,0,0,0,0,0,0,0,0,0,0,0,0,0,0,0,0,0,0,0,0,0,0,0,0,0,0,0,0,0,0,0,0],"split_type":[0,0,0,0,0,0,0,0,0,0,1,0,1,0,0,0,1,0,0,0,0,0,0,0,0,0,1,0,0,0,0,0,0,0,0,0,0,0,0,0,0,0,0,0,0,0,0,0,0,0,0,0,0,0,0,0,0,0,0,0,0,0,0],"sum_hessian":[4.1078638E6,1.2977996E6,2.8100642E6,8.216346E5,4.76165E5,9.75163E5,1.8349012E6,1.9423089E5,6.274037E5,4.2644822E5,4.971679E4,9.09783E5,6.538002E4,1.4954162E6,3.3948497E5,1.8626288E5,7.9680195E3,1.0528796E5,5.2211575E5,1.1952011E5,3.0692812E5,1.2805897E3,4.84362E4,6.187408E5,2.9104216E5,5.8188254E4,7.1917666E3,8.979338E5,5.9748244E5,1.6106875E5,1.784162E5,6.012269E4,1.2614018E5,2.6378025E3,5.330217E3,1.0412277E5,1.1651893E3,1.8132487E2,5.2193444E5,5.325743E4,6.626268E4,2.466824E5,6.0245703E4,7.51562E2,5.290278E2,4.2906094E4,5.530106E3,1.5980878E5,4.5893206E5,1.5621781E5,1.3482434E5,3.5692332E4,2.2495924E4,5.2851597E3,1.9066073E3,5.1382434E5,3.841095E5,4.081583E5,1.893241E5,1.4522047E1,1.6105423E5,1.263111E5,5.2105105E4],"tree_param":{"num_deleted":"0","num_feature":"25","num_nodes":"63","size_leaf_vector":"1"}},{"base_weights":[-2.039455E-3,-9.153276E-1,3.988832E-1,-1.1030607E0,-5.900947E-1,1.3526429E-1,7.268985E-1,-1.1469784E0,-9.549756E-1,-6.4048177E-1,1.2777661E-1,3.0106658E-2,6.7858744E-1,6.077374E-1,1.0141311E0,-1.1020762E0,-1.155924E0,-9.702094E-1,-1.6659811E-1,-4.7358984E-1,-7.8057146E-1,4.8978758E-1,-1.1560835E-1,-2.2350684E-1,1.7563336E-1,5.4733276E-1,9.462915E-1,5.008675E-1,8.363301E-1,9.146423E-1,1.0810639E0,-8.8562705E-2,-5.361983E-2,-4.7385786E-2,-9.249255E-2,-7.372821E-2,-9.322014E-2,1.4447446E-2,-6.595526E-2,-4.282332E-2,5.197069E-3,-7.7268615E-2,-5.576478E-2,2.4266874E-2,7.3113486E-2,8.498861E-2,-1.4865012E-2,-2.3099031E-2,2.1881899E-2,-3.4178536E-2,1.8118333E-2,2.623874E-2,5.2594136E-2,8.3454E-2,6.2261228E-2,3.2698307E-2,6.615165E-2,5.9005857E-2,7.603652E-2,6.723529E-2,8.2475916E-2,8.3520986E-2,8.951901E-2],"categories":[18,19,20,24,25,26,27,28,29,30,31,32,33,34,35,36,37,38,39,40,41,42,43,44,45,46,47,48,11,12,13,14,18,19,20,24,25,26,27,28,29,30,31,32,33,34,35,36,37,38,39,40,41,42,43,44,45,46,47,48,49,50,15,16,5,6,7,15,16,18],"categories_nodes":[9,10,18,22],"categories_segments":[0,28,62,64],"categories_sizes":[28,34,2,6],"default_left":[1,1,0,1,0,0,0,0,0,1,1,0,0,0,0,0,0,0,1,0,0,0,1,0,0,0,0,0,0,0,0,0,0,0,0,0,0,0,0,0,0,0,0,0,0,0,0,0,0,0,0,0,0,0,0,0,0,0,0,0,0,0,0],"id":16,"left_children":[1,3,5,7,9,11,13,15,17,19,21,23,25,27,29,31,33,35,37,39,41,43,45,47,49,51,53,55,57,59,61,-1,-1,-1,-1,-1,-1,-1,-1,-1,-1,-1,-1,-1,-1,-1,-1,-1,-1,-1,-1,-1,-1,-1,-1,-1,-1,-1,-1,-1,-1,-1,-1],"loss_changes":[1.4602369E6,7.428181E4,2.3964494E5,5.015375E3,1.6105453E4,8.778853E4,4.2265188E4,2.376875E2,2.1189219E3,9.726781E3,2.573085E3,4.7513363E4,8.754398E3,2.13215E4,2.4101562E3,2.1089844E2,6.44375E1,1.6399531E3,7.643592E2,6.30916E3,3.4992188E3,9.2816846E2,1.4443993E3,1.5218006E4,2.5074047E4,4.0372969E3,1.3335938E3,1.786561E4,3.1330938E3,1.2559453E3,3.0298438E2,0E0,0E0,0E0,0E0,0E0,0E0,0E0,0E0,0E0,0E0,0E0,0E0,0E0,0E0,0E0,0E0,0E0,0E0,0E0,0E0,0E0,0E0,0E0,0E0,0E0,0E0,0E0,0E0,0E0,0E0,0E0,0E0],"parents":[2147483647,0,0,1,1,2,2,3,3,4,4,5,5,6,6,7,7,8,8,9,9,10,10,11,11,12,12,13,13,14,14,15,15,16,16,17,17,18,18,19,19,20,20,21,21,22,22,23,23,24,24,25,25,26,26,27,27,28,28,29,29,30,30],"right_children":[2,4,6,8,10,12,14,16,18,20,22,24,26,28,30,32,34,36,38,40,42,44,46,48,50,52,54,56,58,60,62,-1,-1,-1,-1,-1,-1,-1,-1,-1,-1,-1,-1,-1,-1,-1,-1,-1,-1,-1,-1,-1,-1,-1,-1,-1,-1,-1,-1,-1,-1,-1,-1],"split_conditions":[5.1E1,8E0,6.81E2,-1.4968E0,1E0,1E0,1E0,2E0,1E0,NaN,NaN,1.74E2,1E0,2.061E3,1E0,1E0,0E0,1.7907128E0,NaN,1E0,-9.217305E-1,1E0,NaN,1E0,-1.1752263E0,2.19E2,2.7E1,1E0,1E0,1.909E3,1E0,-8.8562705E-2,-5.361983E-2,-4.7385786E-2,-9.249255E-2,-7.372821E-2,-9.322014E-2,1.4447446E-2,-6.595526E-2,-4.282332E-2,5.197069E-3,-7.7268615E-2,-5.576478E-2,2.4266874E-2,7.3113486E-2,8.498861E-2,-1.4865012E-2,-2.3099031E-2,2.1881899E-2,-3.4178536E-2,1.8118333E-2,2.623874E-2,5.2594136E-2,8.3454E-2,6.2261228E-2,3.2698307E-2,6.615165E-2,5.9005857E-2,7.603652E-2,6.723529E-2,8.2475916E-2,8.3520986E-2,8.951901E-2],"split_indices":[8,8,8,20,12,12,13,8,15,0,0,8,16,8,12,15,23,20,5,16,20,16,5,16,20,8,3,12,14,8,19,0,0,0,0,0,0,0,0,0,0,0,0,0,0,0,0,0,0,0,0,0,0,0,0,0,0,0,0,0,0,0,0],"split_type":[0,0,0,0,0,0,0,0,0,1,1,0,0,0,0,0,0,0,1,0,0,0,1,0,0,0,0,0,0,0,0,0,0,0,0,0,0,0,0,0,0,0,0,0,0,0,0,0,0,0,0,0,0,0,0,0,0,0,0,0,0,0,0],"sum_hessian":[3.9879962E6,1.2166066E6,2.7713895E6,7.713565E5,4.4525003E5,1.5365215E6,1.2348681E6,5.949153E5,1.7644123E5,4.1604794E5,2.9202107E4,1.28736E6,2.491614E5,8.7278725E5,3.6208084E5,9.885137E4,4.9606394E5,1.7309627E5,3.344971E3,1.8986358E5,2.2618434E5,1.1739602E4,1.7462506E4,4.693719E5,8.179882E5,1.671911E5,8.197032E4,5.947415E5,2.7804575E5,1.4563047E5,2.1645036E5,9.772782E4,1.1235419E3,2.060477E2,4.9585788E5,1.3856905E5,3.4527223E4,2.189918E3,1.1550529E3,1.7034705E5,1.9516535E4,7.026895E4,1.5591539E5,8.155909E3,3.5836929E3,9.8139703E2,1.6481107E4,4.1491788E5,5.445403E4,6.362275E4,7.5436544E5,5.5873684E4,1.11317414E5,5.19886E4,2.9981717E4,4.6369825E5,1.31043266E5,1.4906389E5,1.2898186E5,8.891375E4,5.671672E4,1.09498586E5,1.0695178E5],"tree_param":{"num_deleted":"0","num_feature":"25","num_nodes":"63","size_leaf_vector":"1"}},{"base_weights":[-1.9898498E-3,-8.944499E-1,3.7292653E-1,-1.0930071E0,-5.802103E-1,1.3064401E-1,7.0508933E-1,-1.1308411E0,-9.3742E-1,-6.534044E-1,-1.0069582E-1,1.886776E-2,6.188974E-1,6.102265E-1,1.0677098E0,-1.0931195E0,-9.148744E-2,-8.688752E-1,-1.1393521E0,-9.1366726E-1,-5.7184416E-1,-2.2233312E-1,4.334409E-1,-2.2308438E-1,1.6416968E-1,4.873347E-1,9.087164E-1,5.4093057E-1,9.3767226E-1,1.0284597E0,1.1029031E0,-8.7818906E-2,-5.17548E-2,-4.892762E-2,-7.60997E-2,-9.3500644E-2,-8.347777E-2,-8.27422E-2,-6.5440506E-2,-3.0977603E-2,-5.6472555E-2,-5.3345297E-2,-8.834951E-3,5.638308E-2,3.5419923E-3,-5.0355297E-2,-1.2379757E-2,4.3526674E-3,3.5080284E-2,8.720177E-2,3.4587305E-2,6.2499516E-2,8.029111E-2,-1.2630317E-1,4.4251174E-2,-3.3860826E-1,7.511192E-2,7.922144E-2,8.612923E-2,8.925128E-2,8.425867E-2],"categories":[7,11,12,13,14,16,17,18,19,20,22,23,24,25,26,27,28,29,30,31,32,33,34,35,36,37,38,39,40,41,42,43,44,45,46,47,48,49,50,17,18,19,20,23,24,25,26,27,28,29,30,31,32,33,34,35,36,37,38,39,40,41,42,43,44,45,46,47,48,49,20,24,25,26,27,28,29,30,31,32,33,34,35,36,37,38,39,40,41,42,43,44,45,46,47,48,2,3,5,6,7,8,9,11,14,15,16,17],"categories_nodes":[17,20,22,25],"categories_segments":[0,39,70,96],"categories_sizes":[39,31,26,12],"default_left":[1,1,0,1,0,0,0,0,0,0,0,0,0,0,0,0,0,1,0,0,1,0,1,0,0,1,0,0,0,0,0,0,0,0,0,0,0,0,0,0,0,0,0,0,0,0,0,0,0,0,0,0,0,0,0,0,0,0,0,0,0],"id":17,"left_children":[1,3,5,7,9,11,13,15,17,19,21,23,25,27,29,31,-1,33,35,37,39,41,43,45,47,49,51,53,55,57,59,-1,-1,-1,-1,-1,-1,-1,-1,-1,-1,-1,-1,-1,-1,-1,-1,-1,-1,-1,-1,-1,-1,-1,-1,-1,-1,-1,-1,-1,-1],"loss_changes":[1.295719E6,7.147575E4,2.1945406E5,4.13125E3,1.5568078E4,8.605341E4,3.9562625E4,2.703125E2,1.8996875E3,8.1682188E3,3.8166104E3,4.5107367E4,1.1199344E4,2.0685188E4,3.2828125E2,2.9321875E2,0E0,2.1721406E3,9.688672E1,1.0585391E3,7.2520156E3,2.3796282E3,1.1505958E3,1.336857E4,2.41384E4,6.695422E3,1.1088672E3,1.947325E4,1.0139219E3,2.0632031E2,7.8390625E1,0E0,0E0,0E0,0E0,0E0,0E0,0E0,0E0,0E0,0E0,0E0,0E0,0E0,0E0,0E0,0E0,0E0,0E0,0E0,0E0,0E0,0E0,0E0,0E0,0E0,0E0,0E0,0E0,0E0,0E0],"parents":[2147483647,0,0,1,1,2,2,3,3,4,4,5,5,6,6,7,7,8,8,9,9,10,10,11,11,12,12,13,13,14,14,15,15,17,17,18,18,19,19,20,20,21,21,22,22,23,23,24,24,25,25,26,26,27,27,28,28,29,29,30,30],"right_children":[2,4,6,8,10,12,14,16,18,20,22,24,26,28,30,32,-1,34,36,38,40,42,44,46,48,50,52,54,56,58,60,-1,-1,-1,-1,-1,-1,-1,-1,-1,-1,-1,-1,-1,-1,-1,-1,-1,-1,-1,-1,-1,-1,-1,-1,-1,-1,-1,-1,-1,-1],"split_conditions":[4.9E1,7E0,7.16E2,-1.1752263E0,1E0,1E0,1E0,1.0135694E0,1.5040272E0,-1.0513653E0,1E0,1.85E2,1E0,1E0,1E0,1E0,-9.148744E-2,NaN,5E0,-1.4968E0,NaN,-1.1082524E0,NaN,-1.1082524E0,1E0,NaN,1E0,3E0,2E0,1E0,3.8E1,-8.7818906E-2,-5.17548E-2,-4.892762E-2,-7.60997E-2,-9.3500644E-2,-8.347777E-2,-8.27422E-2,-6.5440506E-2,-3.0977603E-2,-5.6472555E-2,-5.3345297E-2,-8.834951E-3,5.638308E-2,3.5419923E-3,-5.0355297E-2,-1.2379757E-2,4.3526674E-3,3.5080284E-2,8.720177E-2,3.4587305E-2,6.2499516E-2,8.029111E-2,-1.2630317E-1,4.4251174E-2,-3.3860826E-1,7.511192E-2,7.922144E-2,8.612923E-2,8.925128E-2,8.425867E-2],"split_indices":[8,8,8,20,13,13,15,6,20,20,12,8,15,16,16,15,0,0,8,20,0,20,0,20,19,5,16,3,3,19,3,0,0,0,0,0,0,0,0,0,0,0,0,0,0,0,0,0,0,0,0,0,0,0,0,0,0,0,0,0,0],"split_type":[0,0,0,0,0,0,0,0,0,0,0,0,0,0,0,0,0,1,0,0,1,0,1,0,0,1,0,0,0,0,0,0,0,0,0,0,0,0,0,0,0,0,0,0,0,0,0,0,0,0,0,0,0,0,0,0,0,0,0,0,0],"sum_hessian":[3.872464E6,1.1455552E6,2.7269088E6,7.019896E5,4.4356566E5,1.5767872E6,1.1501215E6,5.646722E5,1.3731744E5,3.848248E5,5.874085E4,1.283057E6,2.9373028E5,9.116368E5,2.3848469E5,1.426823E5,4.2198988E5,1.0252211E5,3.4795324E4,9.181821E4,2.930066E5,4.7845684E4,1.0895166E4,4.814167E5,8.0164025E5,2.0202442E5,9.170585E4,7.524101E5,1.5922672E5,1.12758695E5,1.25726E5,1.4121956E5,1.4627283E3,2.4865377E4,7.7656734E4,2.6619912E4,8.17541E3,4.060862E4,5.120959E4,1.2326143E5,1.6974517E5,9.621487E3,3.8224195E4,6.418812E3,4.4763545E3,6.930399E4,4.121127E5,5.725596E5,2.2908064E5,1.6891129E4,1.851333E5,3.914579E4,5.2560062E4,4.308168E3,7.4810194E5,3.6953957E1,1.5918977E5,6.28973E4,4.986139E4,1.00047445E5,2.5678555E4],"tree_param":{"num_deleted":"0","num_feature":"25","num_nodes":"61","size_leaf_vector":"1"}},{"base_weights":[-2.0238718E-3,-8.788183E-1,3.4618622E-1,-1.0763795E0,-5.636605E-1,1.1885795E-1,6.764597E-1,-1.1172181E0,-9.111633E-1,-6.262257E-1,-3.3572882E-2,5.2680474E-2,8.954366E-1,5.818919E-1,1.0481313E0,-1.0765026E0,-9.048309E-2,-8.4683263E-1,-1.1428921E0,-8.537663E-1,-5.348971E-1,1.7396536E0,-7.8484766E-2,-7.3435634E-2,2.9364932E-1,9.333337E-1,5.901434E-1,4.824722E-1,8.134825E-1,1.006637E0,1.0855978E0,-8.652208E-2,-4.8455764E-2,-5.151695E-2,-7.609907E-2,-8.494026E-2,-9.212984E-2,-7.783065E-2,-5.9589427E-2,-3.5966124E-2,-6.777687E-2,1.6366634E-1,1.01598345E-1,-2.1304753E-2,2.2582237E-2,-5.134843E-2,-4.621464E-4,1.0180457E-2,3.8219236E-2,8.29757E-2,6.9603756E-2,2.3664938E-2,5.728659E-2,3.2604992E-2,6.861159E-2,5.979763E-2,7.9276174E-2,7.755589E-2,8.48166E-2,8.808371E-2,8.302662E-2],"categories":[1,3,5,6,7,8,9,10,13,15,16,2,3,8,9,15,17,11,13,17,18,19,20,22,23,24,25,26,27,28,29,30,31,32,33,34,35,36,37,38,39,40,41,42,43,44,45,46,47,48,49],"categories_nodes":[10,12,17],"categories_segments":[0,11,17],"categories_sizes":[11,6,34],"default_left":[1,1,0,1,0,0,0,0,0,0,1,0,1,0,0,0,0,1,0,0,1,0,0,0,0,0,0,0,0,0,0,0,0,0,0,0,0,0,0,0,0,0,0,0,0,0,0,0,0,0,0,0,0,0,0,0,0,0,0,0,0],"id":18,"left_children":[1,3,5,7,9,11,13,15,17,19,21,23,25,27,29,31,-1,33,35,37,39,41,43,45,47,49,51,53,55,57,59,-1,-1,-1,-1,-1,-1,-1,-1,-1,-1,-1,-1,-1,-1,-1,-1,-1,-1,-1,-1,-1,-1,-1,-1,-1,-1,-1,-1,-1,-1],"loss_changes":[1.149456E6,6.6632E4,2.0232075E5,4.437375E3,1.36760625E4,8.202733E4,3.8613438E4,2.95625E2,1.9426406E3,7.6642344E3,3.4671064E3,4.469703E4,1.4495312E3,2.0164125E4,3.4534375E2,3.155E2,0E0,2.1609688E3,1.8847656E1,1.3695547E3,7.0129453E3,1.520498E2,2.8771155E3,3.713087E4,1.5478152E4,7.3196094E2,5.1291504E2,1.7220125E4,3.0808281E3,2.09625E2,8.5265625E1,0E0,0E0,0E0,0E0,0E0,0E0,0E0,0E0,0E0,0E0,0E0,0E0,0E0,0E0,0E0,0E0,0E0,0E0,0E0,0E0,0E0,0E0,0E0,0E0,0E0,0E0,0E0,0E0,0E0,0E0],"parents":[2147483647,0,0,1,1,2,2,3,3,4,4,5,5,6,6,7,7,8,8,9,9,10,10,11,11,12,12,13,13,14,14,15,15,17,17,18,18,19,19,20,20,21,21,22,22,23,23,24,24,25,25,26,26,27,27,28,28,29,29,30,30],"right_children":[2,4,6,8,10,12,14,16,18,20,22,24,26,28,30,32,-1,34,36,38,40,42,44,46,48,50,52,54,56,58,60,-1,-1,-1,-1,-1,-1,-1,-1,-1,-1,-1,-1,-1,-1,-1,-1,-1,-1,-1,-1,-1,-1,-1,-1,-1,-1,-1,-1,-1,-1],"split_conditions":[4.6E1,7E0,7.26E2,-1.1752263E0,1E0,1E0,1E0,1.0135694E0,1.7907128E0,-9.291235E-1,NaN,1E0,NaN,2.196E3,1E0,1E0,-9.048309E-2,NaN,2.0420399E0,-1.3522285E0,1.3448133E0,1E0,1E0,9E0,1E0,1.3E1,2.01E2,1E0,5.358E3,2.196E3,3.3E1,-8.652208E-2,-4.8455764E-2,-5.151695E-2,-7.609907E-2,-8.494026E-2,-9.212984E-2,-7.783065E-2,-5.9589427E-2,-3.5966124E-2,-6.777687E-2,1.6366634E-1,1.01598345E-1,-2.1304753E-2,2.2582237E-2,-5.134843E-2,-4.621464E-4,1.0180457E-2,3.8219236E-2,8.29757E-2,6.9603756E-2,2.3664938E-2,5.728659E-2,3.2604992E-2,6.861159E-2,5.979763E-2,7.9276174E-2,7.755589E-2,8.48166E-2,8.808371E-2,8.302662E-2],"split_indices":[8,8,8,20,16,15,15,6,20,20,5,14,5,8,16,15,0,0,20,20,20,15,14,3,10,3,8,16,8,8,3,0,0,0,0,0,0,0,0,0,0,0,0,0,0,0,0,0,0,0,0,0,0,0,0,0,0,0,0,0,0],"split_type":[0,0,0,0,0,0,0,0,0,0,1,0,1,0,0,0,0,1,0,0,0,0,0,0,0,0,0,0,0,0,0,0,0,0,0,0,0,0,0,0,0,0,0,0,0,0,0,0,0,0,0,0,0,0,0,0,0,0,0,0,0],"sum_hessian":[3.764896E6,1.0701791E6,2.6947168E6,6.5781544E5,4.1236372E5,1.5961104E6,1.0986064E6,5.2743656E5,1.303789E5,3.6883112E5,4.35326E4,1.4707768E6,1.2533368E5,8.7577694E5,2.2282945E5,1.336829E5,3.9375362E5,1.0205256E5,2.832634E4,1.05636E5,2.6319512E5,1.0744158E3,4.2458188E4,9.654755E5,5.0530122E5,1.1149176E5,1.3841921E4,6.1273744E5,2.630395E5,1.0574448E5,1.1708498E5,1.3227028E5,1.4126348E3,3.4677633E4,6.737493E4,2.7638113E3,2.556253E4,5.044721E4,5.518879E4,2.0672317E5,5.6471945E4,6.4838477E2,4.2603104E2,2.7921578E4,1.4536608E4,1.0269542E5,8.627801E5,2.6540897E5,2.3989227E5,4.220763E4,6.928413E4,4.1488965E3,9.693024E3,5.107578E5,1.0197964E5,1.9172875E5,7.131074E4,6.2427062E4,4.3317418E4,8.845432E4,2.8630652E4],"tree_param":{"num_deleted":"0","num_feature":"25","num_nodes":"61","size_leaf_vector":"1"}},{"base_weights":[-2.2466574E-3,-8.6751604E-1,3.192616E-1,-1.0699743E0,-5.6642985E-1,-3.8656767E-2,5.2122176E-1,-1.1058695E0,-9.056985E-1,-6.361907E-1,-1.120111E-1,-1.2645842E-1,4.1120228E-1,3.8881302E-1,8.7192506E-1,-1.051816E0,-1.116682E0,-8.310278E-1,-1.1231166E0,-4.3866277E-1,-7.3993593E-1,1.4172453E-1,-3.760531E-1,-7.2388E-1,-7.8812644E-2,1.0291814E0,3.4859264E-1,2.8594837E-1,6.9753826E-1,7.4854934E-1,9.9675065E-1,-8.4630065E-2,-4.5892518E-2,-8.959118E-2,-8.241723E-2,-6.997515E-2,-2.5416259E-2,-9.127895E-2,-8.136781E-2,-4.159552E-2,-4.647589E-3,-6.7501746E-2,-4.7821425E-2,-1.4596651E-3,5.2987292E-2,4.1820012E-2,-3.348858E-2,-7.3366895E-2,-4.5895364E-2,-1.3597894E-2,1.724923E-2,6.914517E-2,8.685193E-2,1.8466158E-2,5.7425447E-2,1.705076E-2,5.765177E-2,4.7350664E-2,7.123394E-2,5.0609827E-2,6.986916E-2,7.460575E-2,8.4391996E-2],"categories":[11,16,17,18,19,20,22,23,24,25,26,27,28,29,30,31,32,33,34,35,36,37,38,39,40,41,42,43,44,45,46,47,48,49,20,24,25,26,27,28,29,30,31,32,33,34,35,36,37,38,39,40,41,42,43,44,45,46,47,48,49,2,3,5,6,7,8,9,11,15,16,17,18,3,4,5,6,7,9,10,11,13,15,16,17],"categories_nodes":[9,10,12,22],"categories_segments":[0,34,61,73],"categories_sizes":[34,27,12,12],"default_left":[1,1,0,1,0,0,0,0,0,1,1,0,1,0,0,0,1,0,0,0,0,0,1,0,0,0,0,0,0,0,0,0,0,0,0,0,0,0,0,0,0,0,0,0,0,0,0,0,0,0,0,0,0,0,0,0,0,0,0,0,0,0,0],"id":19,"left_children":[1,3,5,7,9,11,13,15,17,19,21,23,25,27,29,31,33,35,37,39,41,43,45,47,49,51,53,55,57,59,61,-1,-1,-1,-1,-1,-1,-1,-1,-1,-1,-1,-1,-1,-1,-1,-1,-1,-1,-1,-1,-1,-1,-1,-1,-1,-1,-1,-1,-1,-1,-1,-1],"loss_changes":[1.01958325E6,6.0523375E4,1.9315722E5,3.4998125E3,1.2655164E4,3.8072656E4,7.932422E4,2.835625E2,1.7275234E3,7.0917812E3,3.5596287E3,2.2956537E4,6.09001E3,3.938039E4,7.2095938E3,2.3475781E2,1.1146875E2,1.7759805E3,5.0402344E1,3.6864902E3,3.349086E3,2.2565498E3,9.9606714E2,1.7280039E3,2.0047846E4,1.3386523E2,6.214711E3,2.9441E4,6.315375E3,3.4064844E3,8.675156E2,0E0,0E0,0E0,0E0,0E0,0E0,0E0,0E0,0E0,0E0,0E0,0E0,0E0,0E0,0E0,0E0,0E0,0E0,0E0,0E0,0E0,0E0,0E0,0E0,0E0,0E0,0E0,0E0,0E0,0E0,0E0,0E0],"parents":[2147483647,0,0,1,1,2,2,3,3,4,4,5,5,6,6,7,7,8,8,9,9,10,10,11,11,12,12,13,13,14,14,15,15,16,16,17,17,18,18,19,19,20,20,21,21,22,22,23,23,24,24,25,25,26,26,27,27,28,28,29,29,30,30],"right_children":[2,4,6,8,10,12,14,16,18,20,22,24,26,28,30,32,34,36,38,40,42,44,46,48,50,52,54,56,58,60,62,-1,-1,-1,-1,-1,-1,-1,-1,-1,-1,-1,-1,-1,-1,-1,-1,-1,-1,-1,-1,-1,-1,-1,-1,-1,-1,-1,-1,-1,-1,-1,-1],"split_conditions":[4.2E1,6E0,3.17E2,-1.1632297E0,1E0,1E0,1E0,2E0,1.5040272E0,NaN,NaN,-1.2921091E0,NaN,1.663E3,1E0,1E0,4E0,1E0,5E0,1E0,2.1E1,1E0,NaN,-1.5389004E0,1E0,1E0,1E0,1E0,3.688E3,1.141E3,1.283E3,-8.4630065E-2,-4.5892518E-2,-8.959118E-2,-8.241723E-2,-6.997515E-2,-2.5416259E-2,-9.127895E-2,-8.136781E-2,-4.159552E-2,-4.647589E-3,-6.7501746E-2,-4.7821425E-2,-1.4596651E-3,5.2987292E-2,4.1820012E-2,-3.348858E-2,-7.3366895E-2,-4.5895364E-2,-1.3597894E-2,1.724923E-2,6.914517E-2,8.685193E-2,1.8466158E-2,5.7425447E-2,1.705076E-2,5.765177E-2,4.7350664E-2,7.123394E-2,5.0609827E-2,6.986916E-2,7.460575E-2,8.4391996E-2],"split_indices":[8,8,8,20,13,13,12,8,20,0,0,20,5,8,13,15,8,16,8,14,8,19,5,20,19,11,15,16,8,8,8,0,0,0,0,0,0,0,0,0,0,0,0,0,0,0,0,0,0,0,0,0,0,0,0,0,0,0,0,0,0,0,0],"split_type":[0,0,0,0,0,0,0,0,0,1,1,0,1,0,0,0,0,0,0,0,0,0,1,0,0,0,0,0,0,0,0,0,0,0,0,0,0,0,0,0,0,0,0,0,0,0,0,0,0,0,0,0,0,0,0,0,0,0,0,0,0,0,0],"sum_hessian":[3.665042E6,9.9289094E5,2.6721512E6,5.936814E5,3.9920962E5,9.639023E5,1.7082489E6,4.8721606E5,1.0646529E5,3.4608012E5,5.3129473E4,8.064947E5,1.5740762E5,1.2400628E6,4.681861E5,8.123024E4,4.059858E5,7.925168E4,2.721361E4,1.191766E5,2.2690353E5,2.7093744E4,2.6035729E4,5.956803E4,7.469266E5,1.4479038E4,1.429286E5,9.3014744E5,3.0991534E5,2.3546411E5,2.3272197E5,8.021248E4,1.0177695E3,3.914513E5,1.4534513E4,7.303856E4,6.213123E3,2.3279846E4,3.933764E3,9.8202305E4,2.0974297E4,1.3112695E5,9.5776586E4,2.0726162E4,6.367582E3,1.1764375E3,2.4859291E4,2.6050629E4,3.3517402E4,5.7033844E5,1.7658822E5,3.6981113E3,1.0780927E4,1.083664E5,3.456219E4,7.9669856E5,1.3344886E5,2.0023762E5,1.0967773E5,1.220821E5,1.1338201E5,1.1063363E5,1.2208834E5],"tree_param":{"num_deleted":"0","num_feature":"25","num_nodes":"63","size_leaf_vector":"1"}},{"base_weights":[-2.1175598E-3,-8.5001385E-1,2.9704475E-1,-1.0555776E0,-5.4600364E-1,4.9705848E-2,5.645099E-1,-1.0943545E0,-8.810648E-1,-5.917489E-1,1.291888E-1,-3.512384E-3,8.1178933E-1,4.6876067E-1,1.006162E0,-1.0484823E0,-8.875549E-2,-8.0404896E-1,-1.1098123E0,-8.6091936E-1,-5.083091E-1,7.656364E-1,-9.414258E-3,-6.0691893E-1,4.1089214E-2,8.5904205E-1,4.596997E-1,3.4505343E-1,6.729235E-1,9.5792747E-1,1.0510546E0,-8.430321E-2,-4.69475E-2,-3.9771963E-2,-7.0633814E-2,-9.030487E-2,-7.983529E-2,-7.973696E-2,-6.173681E-2,-4.474036E-2,-2.1444724E-3,8.217673E-2,2.0053817E-2,3.646624E-2,-1.700823E-2,-6.406141E-2,-3.2558702E-2,-4.18562E-3,2.5282476E-2,7.643029E-2,6.0844857E-2,2.4963668E-2,5.8240823E-2,-6.749724E-2,3.0327728E-2,4.728554E-2,7.01587E-2,7.3007174E-2,8.145448E-2,8.6298324E-2,8.1060074E-2],"categories":[2,3,8,9,15,17,18,7,8,9,10,11,12,13,14,16,17,18,19,20,22,23,24,25,26,27,28,29,30,31,32,33,34,35,36,37,38,39,40,41,42,43,44,45,46,47,48,49,50],"categories_nodes":[12,17],"categories_segments":[0,7],"categories_sizes":[7,42],"default_left":[1,1,0,1,0,0,0,0,0,0,0,0,1,0,0,0,0,1,0,0,0,0,0,0,0,0,0,0,0,0,0,0,0,0,0,0,0,0,0,0,0,0,0,0,0,0,0,0,0,0,0,0,0,0,0,0,0,0,0,0,0],"id":20,"left_children":[1,3,5,7,9,11,13,15,17,19,21,23,25,27,29,31,-1,33,35,37,39,41,43,45,47,49,51,53,55,57,59,-1,-1,-1,-1,-1,-1,-1,-1,-1,-1,-1,-1,-1,-1,-1,-1,-1,-1,-1,-1,-1,-1,-1,-1,-1,-1,-1,-1,-1,-1],"loss_changes":[9.050943E5,5.8156188E4,1.7448617E5,3.7560625E3,1.1595336E4,5.5576344E4,5.358753E4,3.133125E2,1.7774219E3,7.896125E3,2.101392E3,3.447246E4,1.4877617E3,2.6302781E4,4.8789062E2,2.7492188E2,0E0,1.8276211E3,5.290625E1,1.0070742E3,6.583797E3,5.7357227E2,1.849379E3,3.4165898E3,3.0631848E4,7.4746875E2,4.1916626E2,2.6244781E4,6.5628438E3,2.9642188E2,1.21234375E2,0E0,0E0,0E0,0E0,0E0,0E0,0E0,0E0,0E0,0E0,0E0,0E0,0E0,0E0,0E0,0E0,0E0,0E0,0E0,0E0,0E0,0E0,0E0,0E0,0E0,0E0,0E0,0E0,0E0,0E0],"parents":[2147483647,0,0,1,1,2,2,3,3,4,4,5,5,6,6,7,7,8,8,9,9,10,10,11,11,12,12,13,13,14,14,15,15,17,17,18,18,19,19,20,20,21,21,22,22,23,23,24,24,25,25,26,26,27,27,28,28,29,29,30,30],"right_children":[2,4,6,8,10,12,14,16,18,20,22,24,26,28,30,32,-1,34,36,38,40,42,44,46,48,50,52,54,56,58,60,-1,-1,-1,-1,-1,-1,-1,-1,-1,-1,-1,-1,-1,-1,-1,-1,-1,-1,-1,-1,-1,-1,-1,-1,-1,-1,-1,-1,-1,-1],"split_conditions":[4E1,6E0,5.34E2,-1.1632297E0,1E0,1E0,1E0,1.0135694E0,1.5040272E0,-1.0606601E0,1E0,-1.2746648E0,NaN,1E0,1E0,1E0,-8.875549E-2,NaN,5E0,-1.58698E0,1E0,1E0,3.7401694E-1,-1.461354E0,1E0,2E1,1E0,5E0,2.332E3,1E0,1.9E1,-8.430321E-2,-4.69475E-2,-3.9771963E-2,-7.0633814E-2,-9.030487E-2,-7.983529E-2,-7.973696E-2,-6.173681E-2,-4.474036E-2,-2.1444724E-3,8.217673E-2,2.0053817E-2,3.646624E-2,-1.700823E-2,-6.406141E-2,-3.2558702E-2,-4.18562E-3,2.5282476E-2,7.643029E-2,6.0844857E-2,2.4963668E-2,5.8240823E-2,-6.749724E-2,3.0327728E-2,4.728554E-2,7.01587E-2,7.3007174E-2,8.145448E-2,8.6298324E-2,8.1060074E-2],"split_indices":[8,8,8,20,12,15,15,6,20,20,11,20,5,19,16,15,0,0,8,20,16,14,4,20,19,3,19,3,8,19,3,0,0,0,0,0,0,0,0,0,0,0,0,0,0,0,0,0,0,0,0,0,0,0,0,0,0,0,0,0,0],"split_type":[0,0,0,0,0,0,0,0,0,0,0,0,1,0,0,0,0,1,0,0,0,0,0,0,0,0,0,0,0,0,0,0,0,0,0,0,0,0,0,0,0,0,0,0,0,0,0,0,0,0,0,0,0,0,0,0,0,0,0,0,0],"sum_hessian":[3.5681572E6,9.3060425E5,2.637553E6,5.5519406E5,3.754102E5,1.3703348E6,1.2672182E6,4.5425316E5,1.0094089E5,3.5158962E5,2.3820555E4,1.280888E6,8.944668E4,1.04143856E6,2.2577969E5,1.1245393E5,3.4179922E5,7.551922E4,2.5421672E4,8.319603E4,2.683936E5,4.259044E3,1.9561512E4,8.816106E4,1.192727E6,7.886151E4,1.0585172E4,6.484997E5,3.9293894E5,1.0884936E5,1.1693033E5,1.1117441E5,1.2795258E3,1.5441875E4,6.0077348E4,2.1723383E4,3.6982898E3,3.2981688E4,5.0214344E4,2.427132E5,2.5680396E4,2.8237449E3,1.4352992E3,5.9459004E3,1.361561E4,4.4760332E4,4.340073E4,8.9026625E5,3.0246072E5,3.9860445E4,3.9001062E4,6.8291753E3,3.7559968E3,1.8053598E4,6.3044606E5,2.8044744E5,1.1249149E5,6.212189E4,4.672747E4,6.749354E4,4.9436793E4],"tree_param":{"num_deleted":"0","num_feature":"25","num_nodes":"61","size_leaf_vector":"1"}},{"base_weights":[-2.0248443E-3,-8.525513E-1,2.6979327E-1,-1.0532465E0,-5.6575507E-1,-6.3230306E-2,4.6147165E-1,-1.0852028E0,-8.8232493E-1,-6.233665E-1,-5.927427E-2,-1.3725737E-1,4.0061185E-1,3.3397833E-1,8.224051E-1,-1.0211891E0,-1.0983362E0,-7.999778E-1,-1.1178408E0,-4.6738225E-1,-7.481217E-1,1.5728214E0,-1.1020366E-1,-3.4339854E-1,-1.406863E-2,1.2657125E0,3.5379845E-1,2.6192355E-1,7.455736E-1,6.9561005E-1,9.5766574E-1,-7.22926E-2,-8.424626E-2,-8.801772E-2,-8.0675E-2,-4.1736472E-2,-7.099103E-2,-8.917587E-2,-1.0578091E-1,-6.5882795E-2,-3.1122345E-2,-6.864386E-2,-4.996115E-2,1.4234374E-1,6.275875E-2,-1.754884E-2,3.9420713E-2,-3.4311827E-2,3.0731918E-2,-3.0058559E-2,3.5285254E-3,1.1638436E-1,8.6719714E-2,2.1546144E-2,6.3427664E-2,-4.3093752E-2,2.4860838E-2,5.1200133E-2,7.2796874E-2,4.710755E-2,6.6999175E-2,6.9596715E-2,8.089905E-2],"categories":[18,19,20,24,25,26,27,28,29,30,31,32,33,34,35,36,37,38,39,40,41,42,43,44,45,46,47,48,49,1,2,3,5,6,7,8,9,10,14,15,16,2,3,5,6,7,8,9,10,15,16,17,7,8,9,11,12,13,14,17,18,19,20,22,23,24,25,26,27,28,29,30,31,32,33,34,35,36,37,38,39,40,41,42,43,44,45,46,47,48,49,50,7,9,11,12,13,14,16,17,18,19,20,22,23,24,25,26,27,28,29,30,31,32,33,34,35,36,37,38,39,40,41,42,43,44,45,46,47,48,49,50,1,2,3,5,6,7,8,9,10,13,14,15,16,18],"categories_nodes":[9,10,12,15,17,21],"categories_segments":[0,29,41,52,92,132],"categories_sizes":[29,12,11,40,40,14],"default_left":[1,1,0,1,0,0,0,0,0,1,1,0,1,0,0,1,1,1,0,0,0,1,0,0,0,0,0,0,0,0,0,0,0,0,0,0,0,0,0,0,0,0,0,0,0,0,0,0,0,0,0,0,0,0,0,0,0,0,0,0,0,0,0],"id":21,"left_children":[1,3,5,7,9,11,13,15,17,19,21,23,25,27,29,31,33,35,37,39,41,43,45,47,49,51,53,55,57,59,61,-1,-1,-1,-1,-1,-1,-1,-1,-1,-1,-1,-1,-1,-1,-1,-1,-1,-1,-1,-1,-1,-1,-1,-1,-1,-1,-1,-1,-1,-1,-1,-1],"loss_changes":[8.043686E5,4.8500438E4,1.6830566E5,2.7068125E3,1.0122406E4,3.307294E4,7.700625E4,3.4996875E2,1.5135898E3,6.060953E3,2.945272E3,2.1093125E4,5.368176E3,3.667514E4,7.4909062E3,2.6557812E2,5.765625E1,1.4069961E3,1.1519531E1,3.862295E3,2.3509766E3,1.7313452E2,2.2615945E3,1.9327363E4,1.0939131E4,2.3224414E2,4.6638643E3,4.114758E4,3.1967578E3,3.4148594E3,9.921719E2,0E0,0E0,0E0,0E0,0E0,0E0,0E0,0E0,0E0,0E0,0E0,0E0,0E0,0E0,0E0,0E0,0E0,0E0,0E0,0E0,0E0,0E0,0E0,0E0,0E0,0E0,0E0,0E0,0E0,0E0,0E0,0E0],"parents":[2147483647,0,0,1,1,2,2,3,3,4,4,5,5,6,6,7,7,8,8,9,9,10,10,11,11,12,12,13,13,14,14,15,15,16,16,17,17,18,18,19,19,20,20,21,21,22,22,23,23,24,24,25,25,26,26,27,27,28,28,29,29,30,30],"right_children":[2,4,6,8,10,12,14,16,18,20,22,24,26,28,30,32,34,36,38,40,42,44,46,48,50,52,54,56,58,60,62,-1,-1,-1,-1,-1,-1,-1,-1,-1,-1,-1,-1,-1,-1,-1,-1,-1,-1,-1,-1,-1,-1,-1,-1,-1,-1,-1,-1,-1,-1,-1,-1],"split_conditions":[3.4E1,5E0,2.97E2,-1.1632297E0,1E0,1E0,1E0,2E0,1.5040272E0,NaN,NaN,2.4E1,NaN,1E0,1E0,NaN,4E0,NaN,1E0,-1.1632297E0,1.6E1,NaN,1E0,1E0,-1.042406E0,1E0,1E0,7E0,1.226E3,1.226E3,9.88E2,-7.22926E-2,-8.424626E-2,-8.801772E-2,-8.0675E-2,-4.1736472E-2,-7.099103E-2,-8.917587E-2,-1.0578091E-1,-6.5882795E-2,-3.1122345E-2,-6.864386E-2,-4.996115E-2,1.4234374E-1,6.275875E-2,-1.754884E-2,3.9420713E-2,-3.4311827E-2,3.0731918E-2,-3.0058559E-2,3.5285254E-3,1.1638436E-1,8.6719714E-2,2.1546144E-2,6.3427664E-2,-4.3093752E-2,2.4860838E-2,5.1200133E-2,7.2796874E-2,4.710755E-2,6.6999175E-2,6.9596715E-2,8.089905E-2],"split_indices":[8,8,8,20,16,16,12,8,20,0,5,3,5,16,13,0,8,0,15,20,8,5,12,12,20,13,15,3,8,8,8,0,0,0,0,0,0,0,0,0,0,0,0,0,0,0,0,0,0,0,0,0,0,0,0,0,0,0,0,0,0,0,0],"split_type":[0,0,0,0,0,0,0,0,0,1,1,0,1,0,0,1,0,1,0,0,0,1,0,0,0,0,0,0,0,0,0,0,0,0,0,0,0,0,0,0,0,0,0,0,0,0,0,0,0,0,0,0,0,0,0,0,0,0,0,0,0,0,0],"sum_hessian":[3.4792742E6,8.4263706E5,2.636637E6,4.957305E5,3.469066E5,9.631877E5,1.6734494E6,4.1764094E5,7.808955E4,3.114764E5,3.5430195E4,8.3062456E5,1.3256314E5,1.2366329E6,4.3681656E5,7.1111984E4,3.4652897E5,5.7862543E4,2.0227006E4,1.3841622E5,1.7306017E5,1.0712356E3,3.4358957E4,3.1070172E5,5.199228E5,6.803836E3,1.257593E5,1.0523992E6,1.8423364E5,2.2546697E5,2.113496E5,1.5182854E4,5.5929133E4,3.394001E5,7.128858E3,1.3832728E4,4.4029816E4,1.992714E4,2.9986533E2,2.4958414E4,1.1345781E5,9.159596E4,8.146421E4,8.4790216E2,2.2333337E2,2.9092803E4,5.266156E3,2.7802897E5,3.2672746E4,7.204268E4,4.4788012E5,3.3308154E3,3.4730203E3,1.05468945E5,2.0290355E4,6.050565E4,9.9189356E5,1.1218907E5,7.204457E4,1.2865681E5,9.6810164E4,8.01494E4,1.312002E5],"tree_param":{"num_deleted":"0","num_feature":"25","num_nodes":"63","size_leaf_vector":"1"}},{"base_weights":[-2.469743E-3,-8.456336E-1,2.477023E-1,-1.0408077E0,-5.5777985E-1,7.155454E-2,5.8757746E-1,-1.0754606E0,-8.586902E-1,-6.008727E-1,1.0542829E-1,1.7851803E-2,7.989067E-1,4.6915475E-1,9.0300727E-1,-1.0064055E0,-1.0897161E0,-7.7347517E-1,-1.1077287E0,-8.300099E-1,-5.108806E-1,4.7554168E-1,-1.7340343E-1,-1.9655454E-1,1.4153266E-1,8.4298414E-1,4.7322652E-1,3.2161474E-1,6.390816E-1,8.0850226E-1,9.936473E-1,-7.051963E-2,-8.3255164E-2,-8.733911E-2,-7.950883E-2,-4.33774E-2,-7.054157E-2,-8.839373E-2,-1.0312918E-1,-7.806499E-2,-5.924929E-2,-3.5684872E-2,-7.5296625E-2,4.2042367E-2,-7.50209E-2,4.3415617E-2,-2.628745E-2,-1.5543835E-3,-2.6216798E-2,6.5532974E-3,4.3451738E-2,7.78984E-2,6.189095E-2,9.950699E-3,4.7328457E-2,1.2930219E-2,4.3861665E-2,4.48278E-2,6.696603E-2,5.9440445E-2,7.59567E-2,7.4642226E-2,8.2786866E-2],"categories":[11,12,13,14,19,20,24,25,26,27,28,29,30,31,32,33,34,35,36,37,38,39,40,41,42,43,44,45,46,47,48,49,50,2,3,8,9,15,17,7,8,9,11,12,13,14,17,18,19,20,22,23,24,25,26,27,28,29,30,31,32,33,34,35,36,37,38,39,40,41,42,43,44,45,46,47,48,49,50,11,12,13,17,18,19,20,22,23,24,25,26,27,28,29,30,31,32,33,34,35,36,37,38,39,40,41,42,43,44,45,46,47,48,49,50,11,16,17,18,19,20,21,22,23,24,25,26,27,28,29,30,31,32,33,34,35,36,37,38,39,40,41,42,43,44],"categories_nodes":[10,12,15,17,23],"categories_segments":[0,33,39,79,115],"categories_sizes":[33,6,40,36,30],"default_left":[1,1,0,1,0,0,0,0,0,0,1,0,1,0,0,1,1,1,0,0,1,1,0,1,0,0,0,0,0,0,0,0,0,0,0,0,0,0,0,0,0,0,0,0,0,0,0,0,0,0,0,0,0,0,0,0,0,0,0,0,0,0,0],"id":22,"left_children":[1,3,5,7,9,11,13,15,17,19,21,23,25,27,29,31,33,35,37,39,41,43,45,47,49,51,53,55,57,59,61,-1,-1,-1,-1,-1,-1,-1,-1,-1,-1,-1,-1,-1,-1,-1,-1,-1,-1,-1,-1,-1,-1,-1,-1,-1,-1,-1,-1,-1,-1,-1,-1],"loss_changes":[7.1572606E5,4.3618375E4,1.5665736E5,2.919E3,8.965883E3,6.732032E4,3.336528E4,3.815625E2,1.5688906E3,6.0738516E3,1.9754427E3,4.2560727E4,1.7006953E3,1.6281359E4,2.0876719E3,2.8397656E2,6.140625E1,1.3797969E3,8.177734E0,1.0819453E3,5.8993438E3,5.815493E2,1.2134586E3,1.3639795E4,2.4369797E4,9.4558594E2,5.833645E2,1.2604906E4,4.704422E3,1.1013047E3,3.0975E2,0E0,0E0,0E0,0E0,0E0,0E0,0E0,0E0,0E0,0E0,0E0,0E0,0E0,0E0,0E0,0E0,0E0,0E0,0E0,0E0,0E0,0E0,0E0,0E0,0E0,0E0,0E0,0E0,0E0,0E0,0E0,0E0],"parents":[2147483647,0,0,1,1,2,2,3,3,4,4,5,5,6,6,7,7,8,8,9,9,10,10,11,11,12,12,13,13,14,14,15,15,16,16,17,17,18,18,19,19,20,20,21,21,22,22,23,23,24,24,25,25,26,26,27,27,28,28,29,29,30,30],"right_children":[2,4,6,8,10,12,14,16,18,20,22,24,26,28,30,32,34,36,38,40,42,44,46,48,50,52,54,56,58,60,62,-1,-1,-1,-1,-1,-1,-1,-1,-1,-1,-1,-1,-1,-1,-1,-1,-1,-1,-1,-1,-1,-1,-1,-1,-1,-1,-1,-1,-1,-1,-1,-1],"split_conditions":[3.1E1,5E0,7.98E2,-1.1632297E0,1E0,1E0,1E0,2E0,1.5040272E0,-9.5196825E-1,NaN,1.64E2,NaN,1E0,1E0,NaN,4E0,NaN,1E0,-1.5389004E0,1.8641906E0,2.384386E0,1E0,NaN,1E0,1.2E1,1.58E2,1E0,2.284E3,2.284E3,1E0,-7.051963E-2,-8.3255164E-2,-8.733911E-2,-7.950883E-2,-4.33774E-2,-7.054157E-2,-8.839373E-2,-1.0312918E-1,-7.806499E-2,-5.924929E-2,-3.5684872E-2,-7.5296625E-2,4.2042367E-2,-7.50209E-2,4.3415617E-2,-2.628745E-2,-1.5543835E-3,-2.6216798E-2,6.5532974E-3,4.3451738E-2,7.78984E-2,6.189095E-2,9.950699E-3,4.7328457E-2,1.2930219E-2,4.3861665E-2,4.48278E-2,6.696603E-2,5.9440445E-2,7.59567E-2,7.4642226E-2,8.2786866E-2],"split_indices":[8,8,8,20,12,15,13,8,20,20,0,8,5,14,15,0,8,0,15,20,20,20,11,0,16,3,8,19,8,8,16,0,0,0,0,0,0,0,0,0,0,0,0,0,0,0,0,0,0,0,0,0,0,0,0,0,0,0,0,0,0,0,0],"split_type":[0,0,0,0,0,0,0,0,0,0,1,0,1,0,0,1,0,1,0,0,0,0,0,1,0,0,0,0,0,0,0,0,0,0,0,0,0,0,0,0,0,0,0,0,0,0,0,0,0,0,0,0,0,0,0,0,0,0,0,0,0,0,0],"sum_hessian":[3.3930932E6,7.7639125E5,2.616702E6,4.6267803E5,3.1371322E5,1.7234746E6,8.9322725E5,3.8871056E5,7.3967484E4,2.94573E5,1.9140209E4,1.6049752E6,1.18499445E5,6.494172E5,2.4381008E5,6.6525984E4,3.2218456E5,5.5113184E4,1.8854303E4,8.306509E4,2.1150792E5,8.223655E3,1.0916554E4,5.871403E5,1.0178349E6,1.0437215E5,1.4127299E4,3.4760762E5,3.0180956E5,1.19365E5,1.2444508E5,1.4332794E4,5.219319E4,3.1551603E5,6.66852E3,1.7579346E4,3.753384E4,1.8573947E4,2.803558E2,3.1567738E4,5.1497355E4,1.8382119E5,2.7686734E4,7.943331E3,2.8032428E2,1.9439596E3,8.972595E3,2.4979481E5,3.3734553E5,8.862755E5,1.3155939E5,3.616825E4,6.82039E4,3.5799272E3,1.0547372E4,2.0377392E5,1.438337E5,2.1594195E5,8.58676E4,8.150111E4,3.7863887E4,5.035642E4,7.408866E4],"tree_param":{"num_deleted":"0","num_feature":"25","num_nodes":"63","size_leaf_vector":"1"}},{"base_weights":[-2.4054025E-3,-8.40207E-1,2.2747082E-1,-1.0557784E0,-5.821329E-1,6.532384E-2,5.663542E-1,-9.873932E-1,-8.672312E-2,-6.3840896E-1,-6.433576E-2,-2.2926375E-2,4.841946E-1,4.7317472E-1,9.7405845E-1,-9.9556226E-1,-2.7766275E-1,-7.973953E-1,-4.9245986E-1,1.6350183E0,-1.1476945E-1,-1.3186918E-1,2.0091572E-1,2.818039E-1,6.247707E-1,3.9140606E-1,7.534167E-1,1.0144963E0,9.162276E-1,-7.341961E-2,-8.18802E-2,1.5710893E-1,-3.0170253E-2,-5.9633255E-2,-8.6595714E-2,-2.8451925E-2,-5.3122643E-2,1.352421E-1,-5.2897204E-2,2.6054181E-2,-2.4460439E-2,1.4249252E-2,-2.0243414E-2,8.198485E-3,3.7468378E-2,7.667516E-2,1.7208183E-2,4.0935095E-2,6.425506E-2,1.8291721E-2,4.5576453E-2,5.326368E-2,7.202227E-2,7.756793E-2,8.435144E-2,6.941049E-2,7.860615E-2],"categories":[1,2,3,5,6,7,8,9,10,14,15,16,11,12,13,17,18,19,20,21,22,23,24,25,26,27,28,29,30,31,32,33,34,35,36,37,38,39,40,41,42,43,44,45,46,47,48,49,50,0,1,2,3,4,5,6,7,10,11,12,13,14,15,17,19,20,24,26,28,29,30,31,32,33,34,35,36,37,38,39,40,41,44,45,46,47,48,49,50,51,52,53,54,55,56,57,58,59,60,61,62,63,64,65,66,67,68,69,70,72,73,74,75,76,77,78,80,82,83,84,85,86,87,88,89,90,91,92,93,94,95,96,97,98,99,102,105,107,110,111,112,113,114,116,117,118,119,120,121,122,123,124,125,126,127,128,129,131,132,133,134,135,136,137,138,139,140,141,142,143,144,145,146,147,149,150,151,153,154,155,156,157,158,159,160,162,163,164,165,166,167,168,169,170,171,172,173,174,175,176,177,178,179,180,181,183,184,185,186,187,188,190,191,192,193,194,195,196,197,198,199,200,202,203,205,206,207,208,209,211,212,213,215,217,218,219,221,222,223,224,225,226,227,228,229,230,231,232,234,235,236,237,238,239,241,242,243,244,245,246,247,248,249,250,251,252,253,254,255,256,257,258,259,260,261,262,263,264,265,266,267,268,269,270,271,272,273,274,276,277,278,279,280,281,282,283,284,285,286,287,288,289,290,291,292,293,294,295,296,297,298,299,300,301,302,303,304,305,306,307,308,309,310,311,312,313,314,315,316,317,318,319,320,321,322,323,324,325,326,327,328,329,330,331,332,333,334,335,336,337,338,339,340,341,342,343,344,345,346,347,348,349,350,351,352,353,354,355,356,357,358,359,360,361,362,363,364,365,366,24,26,27,29,30,31,32,33,34,35,36,37,38,39,40,41,42,43,44,45,46,47,48,10,11,12,13,14,16,17,18,19,20,22,23,24,25,26,27,28,29,30,31,32,33,34,35,36,37,38,39,40,41,42,43,44,45,46,47,48,49,50,2,4,5,6,7,8,14,15,16,18,3,5,6,7,9,11,15,16,17,18],"categories_nodes":[10,15,16,18,20,21,23],"categories_segments":[0,12,49,379,402,441,451],"categories_sizes":[12,37,330,23,39,10,10],"default_left":[1,1,0,0,0,0,0,0,0,0,1,0,0,0,0,1,0,0,1,0,1,1,0,1,0,0,0,0,0,0,0,0,0,0,0,0,0,0,0,0,0,0,0,0,0,0,0,0,0,0,0,0,0,0,0,0,0],"id":23,"left_children":[1,3,5,7,9,11,13,15,-1,17,19,21,23,25,27,29,31,33,35,37,39,41,43,45,47,49,51,53,55,-1,-1,-1,-1,-1,-1,-1,-1,-1,-1,-1,-1,-1,-1,-1,-1,-1,-1,-1,-1,-1,-1,-1,-1,-1,-1,-1,-1],"loss_changes":[6.378542E5,3.9670656E4,1.4280592E5,7.498125E2,9.457195E3,6.4978477E4,3.1951469E4,6.585078E2,0E0,6.7921797E3,2.7270112E3,3.5406508E4,8.703047E3,1.56875E4,3.6498438E2,2.4328906E2,2.8931717E2,2.0751484E3,3.5823945E3,1.1801123E2,2.599416E3,3.668339E4,1.2512641E4,5.6587305E3,3.6416328E3,1.5379711E4,1.9892422E3,1.6389844E2,2.0678125E2,0E0,0E0,0E0,0E0,0E0,0E0,0E0,0E0,0E0,0E0,0E0,0E0,0E0,0E0,0E0,0E0,0E0,0E0,0E0,0E0,0E0,0E0,0E0,0E0,0E0,0E0,0E0,0E0],"parents":[2147483647,0,0,1,1,2,2,3,3,4,4,5,5,6,6,7,7,9,9,10,10,11,11,12,12,13,13,14,14,15,15,16,16,17,17,18,18,19,19,20,20,21,21,22,22,23,23,24,24,25,25,26,26,27,27,28,28],"right_children":[2,4,6,8,10,12,14,16,-1,18,20,22,24,26,28,30,32,34,36,38,40,42,44,46,48,50,52,54,56,-1,-1,-1,-1,-1,-1,-1,-1,-1,-1,-1,-1,-1,-1,-1,-1,-1,-1,-1,-1,-1,-1,-1,-1,-1,-1,-1,-1],"split_conditions":[2.8E1,-1.4968E0,8.25E2,1.0135694E0,1E0,1E0,1E0,1E0,-8.672312E-2,1E1,NaN,1E0,2.25E2,2.765E3,2.6E1,NaN,NaN,1.9933903E0,NaN,2.6190586E0,NaN,NaN,1E0,NaN,1E0,1E0,5.358E3,1E0,2.196E3,-7.341961E-2,-8.18802E-2,1.5710893E-1,-3.0170253E-2,-5.9633255E-2,-8.6595714E-2,-2.8451925E-2,-5.3122643E-2,1.352421E-1,-5.2897204E-2,2.6054181E-2,-2.4460439E-2,1.4249252E-2,-2.0243414E-2,8.198485E-3,3.7468378E-2,7.667516E-2,1.7208183E-2,4.0935095E-2,6.425506E-2,1.8291721E-2,4.5576453E-2,5.326368E-2,7.202227E-2,7.756793E-2,8.435144E-2,6.941049E-2,7.860615E-2],"split_indices":[8,20,8,6,16,13,